505 12
AMP -1.9482595 4.312803 -1.3124228 -0.36815587 2.5034716 -5.8376775 1.0206567 -0.34640446 2.4505513 6.1549935 2.2047565 3.5851324
BLL -0.35545182 0.17940763 0.13844495 -0.49704012 -2.0773263 1.4144781 -0.34559277 -0.48572674 2.3801913 -1.6848506 0.81861675 -0.6173399
PLD 2.962415 3.6648555 6.1183157 1.3210795 1.6674551 0.112464674 0.8615402 2.4542687 2.9270105 -3.4283032 1.9672122 -8.764344
CMCSA 0.15729658 0.47663352 -1.193297 -1.4721768 -2.2748945 -1.5935569 -0.8964768 0.029632425 -0.13925217 0.05990377 0.013264334 0.22570468
CVS 0.110295035 0.81338817 0.23996739 -1.2337973 -4.4515758 -0.122447595 1.4001504 1.2829499 -1.7456707 -2.820261 0.41259375 -1.023219
MSI -0.43504906 1.0913813 -2.1276603 -0.54491204 -2.6153626 0.13980469 -2.0399766 -1.7838323 2.8508928 -0.40183705 0.77800983 0.840403
TSS 0.64376175 0.5142389 -0.59085107 0.6091924 -2.872266 -0.88222814 -3.7883883 -2.5457118 1.3018938 0.7486416 0.9604212 -1.2564211
DUK -4.1896377 -1.0197861 3.566721 0.45948878 -3.3982797 9.31818 4.7453594 9.94725 8.235781 -2.971937 1.5984669 2.8519282
WEC -3.7565413 -2.450956 3.4973757 1.5068738 -4.0390806 9.175919 4.6943192 10.17148 8.365916 -3.7465296 1.3474969 3.7642434
ULTA 0.76142585 -2.8320525 -2.8318553 -0.18186869 2.4690082 0.36650884 -1.8871065 2.5375059 -5.230138 0.60033804 -0.20206162 -1.8054072
ETFC 0.44405922 1.9141746 -0.67063546 1.3029453 6.108088 -5.0855722 -1.088899 1.546761 -1.8666431 7.503641 1.4732661 3.6622598
FMC 0.028294263 -1.7599674 -0.37007895 -0.79316866 4.412839 -0.9812327 0.9791157 -3.166168 -0.119705565 0.5900627 0.5398647 2.7374213
PCAR -1.8019173 -0.011275429 -3.2216084 -1.2677196 1.732513 -1.9012289 0.8641066 -3.528316 2.4593995 2.5872555 1.5745993 1.3496997
MAC 2.1544511 3.3226619 4.1211777 0.3797642 2.0050592 1.0322801 3.7128289 2.8584058 0.012779432 -3.4901614 2.368582 -8.874708
TMK -1.9534528 6.214373 -1.0804273 -1.9134196 -3.9910567 -4.7909765 0.9085987 -2.1075094 5.586408 2.9843693 2.2227905 1.1955097
GWW -2.216 -0.62604517 -3.2537177 -1.502507 1.6577702 -0.5091738 1.8054203 -2.512724 1.1413926 0.40869355 1.4236953 0.61736786
ARNC 1.4230008 -4.2762 0.19727714 -0.5861197 6.4851203 -0.005006921 2.2520757 -2.5296314 -2.6194103 0.6055996 0.35337904 2.172839
ALL -1.9388621 4.6134276 -0.32472634 -1.6872149 -5.8437533 -2.2320645 1.1672208 -0.4446968 4.0352416 -0.50454813 1.6717668 0.0434671
MO -0.44167385 0.2726591 0.6763018 -0.7685516 -5.882553 2.4942646 1.5400549 -0.32781938 1.5699424 -4.937479 0.83603877 -1.1555318
CBOE 0.4281849 0.442703 0.40225857 0.682484 -0.65779483 -0.49540108 -1.5764703 1.6807705 -0.79651916 1.0181947 0.6162863 0.547459
AAPL 1.9572568 -0.44014576 -0.47300428 0.77988625 -0.41527367 0.46930918 -4.41464 -1.2711614 0.38976008 0.34117383 -0.10266824 1.2426351
EIX -3.1158094 -1.3387475 2.5202 0.08821278 -1.1959 8.549472 2.656437 9.406021 5.4461355 -3.5548005 0.8757538 0.44172096
AMZN 2.9772668 -1.9092661 -0.6621124 1.7345458 -0.5789328 0.88227206 -6.784616 0.039340332 -2.113294 0.8488948 -0.61354446 0.64624035
TSN 0.58959097 -1.9911551 1.1961528 -0.17231798 -1.9193779 1.3183514 0.7566051 0.9919241 -1.4309824 -3.0430381 0.18274279 -0.8171198
LRCX 2.5717602 -1.9068607 -1.7714411 1.2766423 4.1922636 0.8171469 -5.120559 -1.1280113 0.5876549 1.3088503 -0.49501395 3.3738358
STT -0.4923507 4.5349193 -1.4063458 0.6123255 1.1069871 -5.9045978 0.52751106 0.5842909 2.2668614 4.851535 1.8238757 3.430638
LNT -4.503353 -1.3079873 3.7060337 0.8812183 -3.0865338 7.8414326 4.2193065 10.11342 7.7177005 -3.0348365 1.552323 2.5797656
SBAC 0.6378079 -0.24661507 2.031009 0.80477065 0.6766904 1.6222762 -0.87857085 0.5196145 -0.2800973 -2.3463717 0.7574399 -1.021056
AGN 3.5784662 -2.6244414 2.5295694 1.8560712 0.24640752 -0.32500112 -2.2574074 2.8804145 -5.2054725 1.0444628 -0.5459212 1.2321159
NSC -1.2026408 -1.3513556 -1.2358879 -1.0213991 2.2430687 -0.40289104 0.672189 -3.3311913 2.3403842 0.6166429 1.0556138 0.32672727
LLY 1.2206783 -0.78803086 3.7885199 -0.15285811 -5.01998 -0.012587838 -1.4909623 1.8476177 -0.7470207 -1.4619533 -0.40219525 -0.09793785
OKE -0.04852821 -1.9031693 4.4058037 -1.9903768 5.215186 2.88764 4.239135 -0.72621804 -1.4574896 -2.0446076 0.5300805 2.1522713
MMC -1.8830782 3.661277 -0.4962187 -1.4682308 -6.58189 -3.2873356 0.5137938 -2.2171302 4.7925334 -0.07331543 1.5985951 0.03462246
SJM -1.7380147 -0.005978043 -0.6439902 -1.9106809 -5.5769653 1.9141109 1.4609808 0.70420283 0.3244958 -5.283735 0.4311217 -1.7027311
AIZ -1.4080126 3.6456058 -1.0857822 0.0051698773 -0.6873533 -3.134751 0.501536 -0.82201546 1.545841 1.885991 1.8750695 1.8421619
PPL -3.45854 -1.1320598 2.5947134 0.7442552 -2.7840118 8.590394 3.6079042 7.7803226 5.242021 -3.2795763 1.6218239 1.6350379
NKE -0.6279407 0.5986573 -3.953542 -0.58942896 -3.1395414 -0.78184205 -2.2361383 1.2663276 -2.6705196 -0.5144912 0.43151963 -1.7587729
JEC -0.36551496 -1.6932771 -2.0729952 -0.6809504 3.7572372 -0.4909926 1.66689 -4.3580594 2.311052 0.6200129 1.0952938 2.31301
AEP -4.7145104 -1.0037725 3.6774967 0.3352311 -3.070628 9.40585 3.323647 9.246459 7.544766 -4.104003 1.4829053 1.9227773
DTE -4.3720627 -0.26782885 2.7017202 -0.07661685 -3.7987812 9.980408 4.6682696 8.934083 7.0466323 -2.52655 1.8803598 2.7503107
SEE 0.6462229 -1.4935228 -0.7647946 1.9086035 0.67813414 -0.3683763 -0.081617765 -1.5981394 0.26241785 -0.005000502 1.4814692 -1.2656996
ED -5.0575733 -1.0435554 2.8217273 0.076174855 -4.0958576 9.055663 3.3833587 9.805187 7.125695 -3.101288 1.6153245 0.98759586
ABT 1.3716271 0.3422157 1.5074565 -0.15460144 -5.6139555 -1.7670008 -2.2356517 -0.101466335 0.7950839 -0.3497817 -0.1093057 0.61667424
WY -0.1870148 0.8257615 0.96185094 0.8516971 1.7650778 0.74446976 2.4543254 0.5002806 0.89489406 -1.8581768 1.9726782 -2.8143437
HSIC 0.96264946 0.19973394 0.66806626 -0.8537253 -5.9436274 -0.19181632 -4.07158 0.32465598 0.911244 -1.114436 -0.6721259 0.27629137
WU -0.46985093 -0.15106392 -2.593393 -1.2105627 -0.24949321 -0.85210216 -1.0528235 -0.6176141 0.49401167 0.6098134 0.36262578 0.0496404
PCG -3.4207652 -1.1634909 2.1206288 0.58864343 -2.1240633 7.7009144 2.9821992 9.075866 4.1101646 -2.989098 1.1095701 2.1940792
RTN 1.1669168 -0.40700158 -0.44452912 0.118390374 -4.0035453 0.03862121 -1.4083678 -1.8716949 1.5337125 -0.45593703 0.51339805 0.0022125442
QCOM 0.8498858 -0.9989661 -1.3312553 -0.5074339 -0.23913889 1.2880733 -2.3683615 -1.942233 1.2365115 0.08958614 0.2222515 0.971175
AIG -1.5403807 3.5726366 0.4180319 -1.241132 -2.1312501 -4.578829 1.7788588 -1.130151 2.5565705 2.0669248 1.5316198 2.2809496
FFIV 2.697038 -1.0452336 -0.122770175 0.7127949 1.8440642 -0.3825331 -3.0437446 -0.48866954 -0.8007545 1.2788956 -0.29934254 2.0768843
COP -1.5831418 -1.3032086 3.065701 -4.3305855 3.6884027 0.9121955 5.8659453 -4.661744 -0.9909201 -3.7827032 0.27467957 4.082245
KSS -1.2669489 -1.9544448 -3.0980425 -1.3895582 3.6235871 -0.5398085 2.7306023 3.6299396 -7.4270344 -1.0964203 0.62938625 -2.0753314
GM -1.1399837 -0.95048106 -2.1840234 -0.059116274 3.242528 -0.5986915 1.439175 -1.1475981 -0.012181347 2.5836234 1.558004 1.1046454
DISCK -0.5873119 -3.557254 -0.95050704 -1.938257 5.9738364 0.48402125 -0.4640512 2.5035717 -3.187469 -0.24358234 -0.7182356 -0.12613392
AVGO 3.5739338 -2.972135 -0.20959142 1.8438228 4.9036713 2.3771882 -4.915058 -0.9050307 -1.5296718 1.5455341 -0.5644735 3.9270158
NTRS -1.6906502 5.5225873 0.14833356 -2.1514623 1.4717873 -6.0365853 0.37162864 0.87268174 3.4169855 6.4411874 1.3466212 4.07313
GD -0.2481245 1.0293283 -0.74065757 -1.2014042 -3.8821824 -0.35938647 -1.7290074 -3.734127 3.5349128 0.86409974 0.88014907 0.30360886
XOM -2.129615 1.0829499 0.9477586 -3.8175802 -3.13823 0.37527373 3.911668 -3.4768484 2.9357803 -3.385936 0.6254355 2.0196817
HSY -1.0250084 -0.3624802 -0.70584667 -1.0864264 -6.0947437 1.471547 2.1345553 0.31895253 1.3105369 -3.9476974 0.993897 -2.2525911
ADS 0.80564135 -0.6237436 -1.4628888 -0.44550624 1.3434957 -2.4506269 -1.1342101 -1.5302085 -2.1624324 1.998678 0.34323853 1.551892
VIAB 0.09281284 -2.2362778 -1.5104476 -1.4215283 4.156573 -0.3055659 0.77606136 0.16429393 -3.6671963 -0.18727814 0.16528538 -0.15994357
FE -1.8876355 -3.4507823 2.6332119 0.3163004 1.0346111 7.551297 2.9339855 7.103085 2.5303173 -3.1084902 0.3302208 2.1463664
TRIP 2.5861623 -3.4183795 0.71483296 1.0947896 5.3730154 0.07174122 -1.4928323 2.4825342 -5.875382 0.9476313 -0.24994844 0.29924646
FITB -1.681554 5.74115 0.5732765 -1.1758863 2.5155926 -7.4617705 3.7822263 3.5272853 0.490114 6.945632 2.1028717 3.4241276
CF 0.9050453 -3.4310055 1.581951 -0.45422783 6.0546017 0.50541365 2.8848686 0.19013287 -4.075705 -1.1635644 0.5084759 1.4870857
LUV 0.73482007 -2.1644495 -1.559124 5.1402617 2.5228071 -0.32651675 -0.4519676 2.2600608 -2.662358 2.7799244 2.3459647 -0.54525733
CHK 1.915875 -6.5220838 4.9814715 -1.7500997 10.402335 3.0768075 5.9085765 -0.4071754 -8.881605 -4.212732 -0.2244304 3.5780773
MON 0.005369597 -0.06518386 -0.6604823 -1.5682784 -2.4717124 0.2917283 0.107727446 -2.8323057 1.737642 -1.6910504 0.47611296 0.45256376
EXPD -0.9486308 -0.27072844 -1.9177748 -0.75054014 -2.0444875 0.7571418 -0.544658 -1.9002229 1.8949622 -0.409379 1.1000301 -0.57129157
VRTX 4.491768 -4.933267 3.3179293 2.9493837 4.6287346 1.3039283 -3.17476 4.955475 -7.8156796 1.3491093 -1.1124314 3.1180725
CME 0.26039386 2.8315542 0.5252231 -0.67584604 -0.43304214 -2.6594076 0.12473175 1.0465128 -0.21930416 2.858221 0.88659745 2.0503106
GIS -1.7571217 -0.26442516 -0.9403823 -2.0044298 -7.53481 2.4225748 2.9850109 0.81875324 1.6845558 -5.8285656 0.893558 -3.2732754
ADP -0.4976496 1.4239585 -1.3081008 -1.3349084 -6.1736274 -1.3302504 -3.2064352 -3.1899178 3.580745 -1.0583282 0.5900925 -1.0425769
HCN 2.6024113 2.6385362 5.0121655 0.95302856 1.1819437 3.0516741 2.7775621 4.1310563 1.566479 -3.0819197 2.2374442 -8.509845
HON -2.1091576 2.1412172 -3.028015 -1.4270824 -4.8259945 -2.3425837 -0.733052 -3.7686598 5.9977903 0.25402817 1.4540366 0.65199053
AVY -0.5818529 0.43874872 -1.6512331 -0.23968843 -2.232882 -0.3881041 -0.84237766 -1.876368 3.2267709 -0.41741845 0.973918 0.24760856
BK -0.85189015 5.4432373 -1.0693418 -0.7240492 0.90697783 -6.289515 1.4500406 0.36588782 2.412887 6.714696 2.0515604 3.4240181
TROW -1.3674469 3.518021 -2.54631 -0.57756263 -0.4511196 -4.377543 -0.2271897 -2.612222 3.1691833 3.1349292 1.8743004 1.8949817
OXY -1.4967564 -0.45411527 2.2614746 -4.11645 0.8204485 -0.587306 4.969925 -3.7616482 0.36590084 -2.7465544 0.26884553 2.2971656
CI 2.125404 -0.60644907 2.5379593 -0.4294169 -1.6110473 -0.7521834 -1.5661978 1.2828487 -2.192864 1.2376072 -0.34038723 0.35233477
APC -0.3809497 -2.4147344 4.764677 -4.616165 5.6716247 0.7959577 6.3666925 -3.6292918 -2.6370597 -3.5416229 -0.21093841 3.714371
SHW -0.4015645 0.6044403 -1.1697068 -0.11398579 -2.3220372 -0.39178938 -0.033694915 -2.2136855 1.2453104 -0.05295263 1.5471541 -1.564823
AMD 3.8770614 -5.3745003 1.6411941 2.4439168 9.107288 2.1606205 -2.0204637 1.5392343 -7.648172 0.42093694 -0.072295405 1.8282517
WBA 0.48492014 -1.4302875 0.056894664 -0.15542245 -1.537974 -1.0392603 -1.4121362 1.4061205 -3.250122 -0.37488306 -0.08575109 -1.1306095
CAG -1.2045999 -1.5758047 0.007812627 -1.794945 -5.103708 1.9254638 1.7581606 0.9579864 -1.4302096 -4.4066005 0.20043181 -1.7895497
MAA 2.5512717 4.927008 6.321582 1.5432587 0.27293238 1.2311016 1.1409212 3.9547584 2.8096657 -3.4435127 2.4671814 -9.334893
WMT -1.3842878 -0.6957399 -2.3890955 -1.3686072 -6.0468616 1.1052916 0.76346546 0.96974653 -0.9979 -4.0620112 0.31565672 -1.7136123
TJX -1.3343602 1.0644641 -4.6298776 -2.2863536 -2.4989107 0.047982816 0.825816 1.0688734 -3.3226883 -1.7997532 0.79050744 -3.4313998
COST -1.4869146 1.6119137 -2.477771 -2.3745856 -7.4725127 -0.24429718 0.2798766 0.6455026 -0.6790204 -3.4266558 0.44630042 -2.1468534
LNC -0.9094028 4.8961477 -0.8609368 -0.62959826 5.014204 -6.2087736 1.879545 0.70970947 0.90887564 6.9456816 2.0990393 4.468599
ACN -0.63216376 1.0483922 -1.2886649 -1.2334855 -3.6989794 -0.7273853 -2.6906736 -0.9873741 2.6062539 0.29541835 0.37044105 0.23766764
JNJ -1.0562295 0.7085212 1.7475778 -1.3323079 -9.013755 -0.2551695 -1.117306 0.13309768 2.714597 -2.45514 0.30340242 -0.071317375
BDX 1.7761395 0.5246806 0.6294277 -0.4715156 -7.4586363 -1.7285737 -4.0881596 -0.67619896 0.72542423 -1.009407 -0.5669263 0.3348404
MLM 1.282442 -2.5519848 -0.24590734 0.36902997 4.5106397 0.55884296 1.1201482 -0.30631 -0.9864284 1.5405464 0.79581636 0.4628733
DOV -1.7907058 -0.24385735 -2.9331133 -2.154644 3.2620227 -0.75181544 1.6785614 -6.6253695 3.6744208 0.5170884 1.4427829 2.187898
XEL -4.518475 -0.39352667 2.9513075 0.86723447 -4.530632 10.9268875 4.2296877 10.099833 7.9248314 -2.6191344 2.0167637 3.4879992
EXPE 2.7721837 -2.313321 -0.14591934 2.4690614 1.4707772 1.3611931 -4.8138394 0.78172797 -3.0360663 0.2555039 0.027293026 -0.38142958
NDAQ 0.4176047 0.9987772 -0.44842395 0.2606455 -1.193704 -0.27077016 -1.9291177 0.6949019 0.12690572 0.80473936 0.67303765 0.10486671
USB -2.588895 7.444497 -0.08436979 -2.27142 -2.1268973 -7.34997 3.7944098 0.13889286 3.2401705 4.9090357 2.4799724 3.229428
CINF -2.0568063 3.4019601 -0.82378006 -2.5849347 -5.6480117 -2.3171337 0.2686341 -1.3320403 4.1857963 -0.117887594 1.2482592 -1.5612884
IPG -0.020180345 0.34663928 -1.340439 -0.13896823 0.18614323 -0.6125857 -0.8598493 0.12704451 -0.22061901 0.9566669 0.9737778 -0.48960912
WM -1.6918367 1.6596833 -1.8846836 -2.0146937 -6.7439003 1.3013688 -0.16143322 -0.8865002 4.650052 -2.9615228 0.9628569 -2.0880136
SWKS 3.2670028 -3.9996295 0.5815212 1.7832106 6.152361 1.1913173 -5.420042 -0.33433405 -2.6671066 2.1517398 -0.78652954 3.1790092
V -0.09586764 1.8472598 -0.5493235 -0.7169696 -3.7700634 -0.9548671 -3.7638097 -2.372594 2.6431682 0.088963605 0.79019535 -1.3868194
PHM 1.2130367 -1.596044 -0.5730869 4.1569705 5.067934 -0.08544468 0.2839652 0.013699219 -3.4789915 1.1372558 2.5647612 -3.3090196
ADSK 2.9095023 -2.2491002 0.24706471 2.111115 2.9009662 0.19777536 -4.830684 0.26771086 -1.836046 1.7122835 -0.20421787 1.5011265
D -4.845564 -1.1223357 3.783303 -0.038521454 -3.2676592 7.3661237 4.2278705 7.709155 6.4841723 -3.4126143 1.4669913 2.7290516
SNPS 1.5508158 2.1794882 -1.8736552 0.053737856 -3.8792684 -0.39122793 -4.828269 -1.6975794 3.2978842 0.8655513 0.5366395 0.008823081
TAP -0.28325963 -0.048048537 1.0128719 -0.16408204 -3.2308407 0.9737874 -0.23049824 0.49661347 -0.40256435 -2.058593 0.5782259 -0.82517624
BEN -1.1423347 1.9322621 -0.8815284 -0.87247366 1.8993073 -3.3461244 1.3531365 -1.9519538 0.746224 3.3666155 1.7940114 0.9752085
L -2.929988 4.339129 -0.20360693 -2.8361835 -3.9823153 -3.0371017 2.2391448 -3.164897 4.6644096 1.251524 1.9820243 0.9079347
MOS -0.41782555 -3.0171225 0.13129432 -1.780234 5.8036904 1.3225147 3.5550725 -0.90442866 -2.2736843 -0.6786318 0.5432968 1.4415615
EBAY 2.1112788 -1.4623761 -1.2378575 1.0302651 0.3292771 0.45373031 -4.016538 -1.0007932 -1.2969191 0.4462232 -0.07034422 1.2945845
SYY -0.93521756 1.0876229 -1.3731931 -0.77653146 -6.0666566 -0.54941773 0.9267971 -0.67591244 1.3666536 -3.1879897 1.1536711 -2.6408324
RE -0.89287734 2.1279602 -0.3902188 -0.09601332 -2.8692298 -1.6186355 0.42783433 0.30493334 1.2098427 -0.12946588 1.3877873 -0.38754216
CNP -3.116567 -0.9258347 2.75026 -1.3312511 -0.34266743 5.031101 4.0970254 3.332759 5.5883145 -2.5155966 1.1481555 2.0897062
MRK 0.7086361 0.19966067 1.3398389 -0.48000163 -5.102665 -0.4135275 -0.6292126 0.47219455 0.77594906 -0.9676211 0.16945583 0.6068561
XYL -0.74676716 0.45833823 -1.5038506 -0.8996426 0.1768778 -0.7951883 -0.2791699 -4.0664053 2.775713 0.7168125 1.2457565 0.7702977
ROK -0.3977842 -0.5351978 -2.9411721 -0.40082014 1.9302168 -0.04474605 0.53013223 -5.1167064 3.537598 -0.012052826 1.280775 1.9822627
WHR 0.54700345 -1.0742252 -1.3639702 1.5108731 1.9426781 0.9782868 -0.12659444 0.16646783 -1.8674686 1.0065634 1.5783402 -1.8497179
MMM -1.6169807 1.7206886 -2.4781878 -3.0503366 -7.067773 -0.26004162 -1.5593991 -3.8948345 6.3839707 -0.3545581 0.71039563 0.5525893
PBCT -2.0562756 5.0256076 -0.5681745 -1.2545308 0.6809119 -5.485727 3.8398707 1.5863502 1.7503963 3.8060172 2.0411856 2.801379
HOG 0.06338349 -0.3825458 -1.4674383 -0.50098085 2.814732 -0.95556897 1.456029 0.009510121 -1.2672758 0.70641077 0.86165255 0.87276703
A 1.6605501 -0.06103348 -0.18039158 0.98582673 -0.5733719 -1.3466634 -3.8042169 -1.9684256 0.9855502 2.3884804 0.44667885 1.3846656
EMR -2.6256623 0.44034547 -2.6665993 -1.4507686 2.035075 -1.773379 1.9982235 -5.353505 4.8716474 0.60932684 1.753998 2.7742605
NWL 0.21549734 0.039845783 -1.7701075 -0.120429605 -0.7562778 0.6817353 -1.2529218 -1.0617423 -0.14737341 -1.1205289 0.681193 -0.8201489
IVZ -0.27236605 2.1024804 -1.0823731 -0.8676196 3.0139847 -3.6148596 -0.058645543 -0.7971237 2.2526345 4.648785 1.0879749 2.6375082
VFC -1.8894656 -0.14172964 -4.1511507 -2.1316223 -2.3411794 -0.7229608 -0.19049321 0.019444913 -1.6962295 -0.56780237 0.577911 -2.326839
EL -0.47714785 1.414062 -0.13016795 -1.0901971 -3.9373674 0.5476414 0.6040411 -0.30215424 2.3635018 -2.3498895 0.8334516 -0.16294684
GLW 0.6264453 0.214486 -0.85470974 0.16999209 0.73947805 -1.6270317 -0.65833926 -3.4118 3.0872927 0.6930669 0.991569 1.3403008
DHI 2.2666433 -2.4948657 -0.09539464 5.6710887 5.2684946 0.92251873 0.041344717 0.5215542 -3.7809567 -0.67413425 2.4528425 -3.1462214
NEM 2.6371763 -3.3805656 2.3850656 1.1196209 7.24501 1.6056821 1.2434164 0.6822489 -4.963182 -1.6001747 0.54203176 -0.7969099
AEE -4.940044 -1.2349744 3.859731 1.0929167 -3.132742 7.609887 4.675212 8.844744 6.293955 -2.4135733 1.9300426 3.1203384
RMD 2.3528283 -1.3018085 1.6522933 -0.008977939 -2.6045308 0.44501323 -3.580405 -0.05755637 -1.2990935 -0.06273809 -0.38961285 -1.6023263
PG -0.42080724 1.1718916 -0.05835614 -1.5776985 -8.754641 1.0367482 1.1568214 -1.8663965 2.0831082 -4.125342 0.9350697 -1.5237107
RHT 2.12769 -1.2496077 -0.31899807 1.9032867 -0.6518147 1.2892262 -5.237242 -0.3841529 0.7403486 1.7232043 0.32164672 0.3712579
RHI -0.20475163 0.49445665 -1.8681712 0.5576461 1.1516306 -0.32448807 -1.1391685 -1.5943934 1.4276025 1.640364 1.2756691 1.5228894
MAS 1.284803 -1.3811927 -2.974985 2.504336 3.6539845 0.34535557 -2.0195532 -0.8167791 -0.72923386 1.6664616 1.4963973 -1.775465
EFX 0.42898744 1.000724 -1.4361333 -0.24190071 -3.4747841 -0.40658322 -2.4262762 -1.535578 2.0797503 -0.69813204 0.65663856 -0.80565023
DPS -1.1359041 0.25075725 0.079321794 -0.681066 -6.4839134 2.7324958 1.3301982 0.49087456 1.1025081 -4.8785367 1.0466061 -2.2873716
KSU 0.5068223 -1.0067227 -1.5332044 0.3462243 3.662659 -1.320929 0.71306473 -2.2497373 -0.07030066 1.7569578 1.2238384 0.3195444
NVDA 1.7200907 -2.7157156 -0.15994433 1.0038716 4.430881 1.048437 -4.406917 0.83174795 -0.7376655 0.7550682 -0.44646013 1.7758082
AES -1.2921522 -1.9825383 1.0948437 -0.50803435 4.893491 2.3452387 2.6905613 3.4103441 0.59619415 -0.6567054 0.8107005 0.2527813
NFLX 2.9921758 -4.3743234 0.35622346 2.4407632 4.8732815 0.65757656 -3.449865 0.15260091 -6.2700496 1.9258845 -0.17262398 2.0492103
AXP -0.80997306 3.8246462 -0.51990795 -0.7694211 -2.246514 -3.9937677 0.21403268 -1.7578174 3.058972 2.8083503 1.7291876 0.73541266
SIG 0.16108388 -1.9566503 -2.2459192 -0.57560086 3.6542418 0.46759212 1.2109817 1.9149969 -5.466768 -1.0723534 0.6200397 -1.4425522
MU 3.2442446 -4.934847 1.0211074 3.245417 9.468605 1.3467368 -1.4838332 2.2638662 -4.263766 2.339457 0.0035871058 4.1910696
TDG 1.4618636 -0.5284381 0.0008844494 0.68545383 -0.9752998 0.99262315 -3.072416 -0.9225186 -0.96264344 -0.7818617 0.57287306 -1.7640887
RF -1.3733822 6.078596 0.94150704 -0.28889236 6.181749 -8.2908945 4.7736254 3.1043534 -0.7284659 7.977396 2.5965035 4.740146
HIG -0.8444765 3.550864 -1.1340067 0.2441908 -1.6501702 -4.6214614 0.3140646 0.26720554 2.2560408 3.4792273 1.940886 0.6941883
FDX -0.31393328 0.81782 -1.9199308 -0.07986626 -0.7634134 -0.31284916 -1.2916467 -2.6300945 2.578149 0.34543228 1.2187197 0.52362627
VZ -1.5848938 0.31626517 -0.4977907 -1.0250552 -4.147386 0.829018 1.6118915 1.3549715 2.1042037 -2.13634 0.989204 -1.4509555
IDXX 3.155866 -1.7950487 1.4997245 1.2862854 -2.0882866 0.8290756 -5.2153325 0.76065624 -1.1387335 0.5029384 -0.61290395 -0.22493555
PNC -1.9896454 7.162892 -0.5275828 -0.84999776 -1.1774263 -7.258061 4.290751 1.3467331 2.6309774 6.148116 2.7830756 4.1143155
T -2.2779481 0.8328587 -0.3058693 -2.914086 -5.333016 0.2953912 2.3977623 -0.1072683 2.2521145 -3.8400428 0.6394403 -1.4064984
C -1.8665543 5.0476255 0.054696564 -2.047171 1.7457997 -7.214649 2.1956882 0.11087892 0.6317592 7.1975064 1.818218 4.655409
HUM 2.5260174 -2.1488388 0.99493426 0.6084106 -1.9351147 -0.6681152 -2.0882547 1.8773804 -4.522157 0.75506216 -0.50437665 0.46738142
RJF -1.2910411 5.1002784 -1.2828349 -0.3698693 2.3347387 -6.145259 1.4384627 0.43568602 1.345746 7.044151 2.4438245 2.753476
PWR -1.1904248 -1.184515 -2.375225 0.026556702 5.8656044 -0.86744916 1.7310044 -2.0641627 1.491757 0.9810063 1.5090928 2.069408
MNST 1.6031759 -1.5019007 1.0749075 1.2686722 -1.5841991 2.767872 -2.2247045 2.6547697 -2.2961714 -1.6260915 0.15681262 -1.5387934
SPGI 1.2487005 1.0764539 -1.3432971 0.5230496 -2.3986137 -1.9159204 -3.7657576 -1.5157952 1.6461532 2.3670971 0.49666974 1.6077014
JNPR 1.4244117 -1.3048174 -0.9427416 0.36472574 1.4919258 0.051475454 -2.6678417 -0.588996 -0.9889157 1.3890792 0.03934476 1.8808717
AAL 2.3231664 -5.326999 -1.0512867 4.7155786 5.790679 -0.39077207 1.0462912 3.4517348 -5.9987926 4.6083894 1.6063495 0.6769614
BBY 0.5201058 -3.4559326 -2.3934693 0.91115403 4.4077396 -0.12414955 0.57296246 2.256054 -6.918959 0.81570333 0.53353494 -0.39451268
INTU 0.8277438 0.46395242 -1.4931775 -0.41230157 -2.9423835 0.25671002 -4.0909486 -0.4044714 0.9707434 0.5882323 -0.10444377 1.2518289
SRCL -0.049313005 1.1750056 -0.7614537 -1.717856 -2.3042252 0.33360597 0.058621947 0.21878214 -0.6787013 -2.5890536 0.61677927 -3.5900161
SCHW 0.011536466 2.6746833 -0.6117542 0.6850345 4.8708153 -6.012759 0.7290798 0.23859891 -1.6271313 6.3766837 1.683103 4.207966
MCHP 1.556575 -0.32172614 -0.89513 0.38348278 1.8332638 1.0217704 -4.9909644 -1.6287825 2.7352037 1.6595153 -0.12563138 3.0017636
FLR -1.6512477 -1.1029241 -1.1526265 -1.7040886 5.8548613 -0.099109575 2.6581814 -3.6527297 1.5539505 2.3765838 1.7354311 0.99051523
CL -1.8122083 1.0371047 -0.0771964 -2.4008765 -8.642898 0.2814441 0.45817956 -1.6952606 3.2645757 -4.7067122 0.8354456 -3.0839007
ILMN 4.613587 -3.588104 3.1486068 2.7082775 2.3809137 0.4200715 -4.682839 2.5766776 -5.1081467 2.2045462 -0.9691152 2.8055444
PVH -0.33001897 -1.2181524 -4.1467714 -1.106561 1.6071652 0.307146 -0.29265007 1.0243709 -5.4243455 -1.1518967 0.21129988 -0.9753784
FB 4.2395086 -2.2626302 1.6223867 2.3007283 0.6047453 0.8969306 -7.040508 -0.37261716 -3.0560238 1.7578065 -0.57827246 0.36989495
M -2.4790485 -2.0614674 -4.8274817 -2.5433724 2.9744465 0.49676782 2.7964692 3.7423604 -7.3236156 -1.8282144 0.4544598 -1.8770149
IRM 1.9274168 0.010058582 1.6757509 1.2949026 0.35898736 1.3950686 -0.2827154 1.6896919 0.45584688 -1.416807 1.1205883 -3.7871828
VAR 2.4668305 1.2350217 0.28991854 -0.77666473 -4.8009934 -1.4443249 -2.9791927 -1.8906024 1.2689899 0.27530286 -0.12185555 0.025010662
DAL 1.9708495 -2.2498317 -2.6725845 6.506796 4.7877617 -0.91302276 -1.1343822 3.7539716 -4.339176 3.8145463 2.4524858 -1.3648381
BA -0.07154025 -0.5126571 -1.4403042 0.4468888 -2.1345103 -1.6633713 -1.0536684 -2.2621295 1.400587 1.4404007 1.0607299 0.621404
IT 0.36935323 -0.13140869 -0.6451052 0.7741349 -2.434104 -0.21447147 -3.8743126 -1.4333572 0.94036293 0.7058273 0.73639464 -0.9977403
BAC -0.5956019 5.0941825 -1.1171662 -0.3540853 2.7874584 -7.8808603 3.419087 1.5698144 0.022871861 7.639252 2.1100247 5.2801957
EXC -1.682036 -1.4477948 3.3291314 0.6481021 0.64428604 5.794272 4.0568085 6.9592423 2.2645078 -3.5086272 1.069065 0.45570192
ETR -2.9939198 -2.1920123 4.2054834 0.6124112 -0.9845737 6.681316 4.213704 7.4275427 4.4535823 -2.7086775 1.1985178 1.6190253
XRX 0.27161014 -0.27556387 -2.1931746 -0.01310466 3.6436598 -1.2600427 0.1603934 -2.0588386 -0.5059154 1.0924414 0.97355 1.5213803
LEN 2.2835455 -1.4086125 -2.3557317 3.1911926 5.3321176 0.97052467 0.64719665 -0.4068878 -2.563838 1.4563427 2.3492978 -3.8316739
LB -1.5124242 -0.50584716 -3.4870722 -1.5318757 3.0657423 0.38913202 2.319666 3.4629264 -5.6610804 -1.8847038 0.8813572 -3.0656972
KLAC 0.9174328 -1.6700734 -1.3318248 0.7692028 0.92796415 1.2819929 -4.40664 -1.3331276 2.4782102 -0.37678003 -0.3697685 3.807852
LUK -0.91702604 1.2969848 -0.47198632 -0.12197452 3.2248116 -3.5369306 1.8475863 -0.99770796 -0.24901602 2.9317372 1.5345451 2.9653287
ABBV 3.3912847 -2.9156454 2.9410713 0.94712025 -1.9732999 0.25101283 -2.5315435 1.2711774 -3.3334594 0.28241357 -0.9193582 1.0524261
TRV -2.764658 4.3584466 0.08192833 -2.3698518 -6.4071803 -1.5577176 2.1355538 -0.6110675 2.404078 -1.533161 1.8877418 -1.2921832
PEG -4.0184546 -0.831856 3.4782774 0.24685027 -0.69418025 8.046024 4.0640717 7.922594 5.577397 -2.6568017 1.6283243 2.482127
CMS -5.7168603 -1.5341545 3.7753417 0.30864522 -3.0936654 8.476674 5.1677823 10.46447 6.298244 -3.678629 1.5147628 3.0130653
DRI -1.2644033 -0.61619097 -1.1958833 -0.6980135 -0.69740325 -0.100521825 0.61278236 2.1612844 -2.0324965 -0.8387014 0.5764459 -0.61518717
MYL 3.9955277 -3.654761 2.5151262 0.4897631 2.7131546 0.3191412 -1.5454872 2.051873 -6.467072 0.9358584 -1.116224 2.4772785
SO -3.923912 -0.7556249 3.1920123 0.079321235 -5.0774994 7.530706 4.360985 8.940653 5.4276443 -3.1032424 1.2785809 2.9682965
KMB -0.16123408 0.63318026 0.43255123 -0.65267223 -7.173197 1.8848519 0.960666 0.019811906 1.9551975 -6.1511116 0.72914433 -3.3279386
AJG -1.5038693 3.2040617 -1.4540995 -0.63229465 -4.5970483 -2.1988325 -0.21458419 -1.666248 3.7308922 0.7458129 1.7432339 -0.25075588
GRMN -0.06447117 -0.76745844 -0.71816826 -0.8377392 1.8980751 0.5307454 -0.6610634 -0.1058589 0.24859715 0.4714165 0.26838192 1.0621464
DFS -1.6883488 4.571543 -1.4431211 -1.0548992 -0.69263715 -5.5997534 2.348018 -1.160264 1.4010564 3.5022976 2.0973353 2.1183252
BBT -2.8662152 7.1269517 0.93636346 -3.1863465 -0.36193484 -7.305725 3.518969 2.850132 2.4809453 5.6440897 1.6808511 3.750966
CLX -1.3929213 0.005500987 0.57201934 -1.2206105 -7.9601936 3.0496788 1.8261509 0.49608397 0.81502426 -5.445641 1.0158726 -2.9986837
PAYX -1.0746862 1.9539638 -2.269929 -1.3193506 -6.473946 0.21555127 -2.6020448 -1.3863224 2.8397257 -1.5000159 0.7245924 -1.1760327
AFL -2.274269 4.1975827 -0.83226085 -1.7486243 -4.2181053 -3.3972032 0.18267775 -1.8910339 5.5379143 1.3525558 1.8422706 0.04078857
ETN -0.021213936 -0.6895999 -2.7934587 0.0843029 2.6626945 -1.4382244 1.042044 -6.038055 4.3590927 0.5737917 1.6318207 1.03316
MKC -1.1766753 0.16106443 -0.4634528 -0.4633096 -7.779966 0.99356294 1.1366616 -0.9965513 1.8953867 -4.5106792 1.0922656 -1.3979418
CSCO 0.29691634 0.64716023 -2.3769102 -0.4641088 -2.8642735 -0.2971185 -3.2201767 -3.3646667 2.6785464 0.20688118 0.51367146 0.946289
NRG 1.2141083 -4.044947 3.272939 0.23049222 6.3475 3.8307073 3.1037073 3.6566238 -3.0745347 -3.1640007 0.13582256 1.0025731
ANSS 0.86981344 0.9777169 -2.1220553 0.6892425 -1.119544 0.22476293 -4.862446 -1.0543063 1.7545263 0.74297124 0.5799224 0.094202295
UAA 1.3264064 -3.835576 -3.3954136 0.33579546 4.8244715 0.13021226 -1.6414161 3.3428907 -8.104231 1.0984174 -0.3612855 0.157978
NI -2.0645776 -0.84394 3.0546463 0.63360155 -2.2597287 7.4218802 2.214124 7.4699945 5.5503697 -2.3138635 1.1538819 0.9215691
KORS -0.007076936 -2.7766984 -2.5662737 0.17783943 5.6146045 -0.9513515 -0.5549853 1.5575022 -7.1136785 0.7204113 0.27576882 -0.43022606
K -2.7283657 0.041448906 -0.3536133 -1.3864782 -6.801581 1.0554855 3.5281746 0.17233132 0.41887417 -6.4647617 1.2498534 -3.2606642
TIF -2.0547614 -1.3092134 -3.3204088 -0.96632326 0.6923395 -0.43298954 0.06612871 -0.47293463 -2.49735 0.10842831 0.8789345 -0.15308444
UTX -1.7492049 0.7604623 -2.141069 -1.738095 -3.1741705 -0.54288656 -0.21183231 -4.571814 5.2327003 0.06972863 1.4250627 -0.056664392
BRK.B -3.223617 3.882231 -1.0709102 -1.6685289 -5.927839 -3.0007172 0.90767574 -1.8508278 5.843304 1.7827574 2.0645704 1.3424892
DLR 2.4679148 1.1673195 5.1955614 1.2082118 1.0105779 3.3026605 1.2501922 4.531496 -0.05633797 -2.9804919 1.5619755 -6.651252
F -1.4779664 1.2229246 -2.8781908 -1.4602828 2.3548596 -2.821353 1.1751269 -1.7390953 0.5983833 1.5611811 1.1859779 1.3526189
GE -1.5551261 1.1303567 -1.4732435 -1.2634227 -2.7359304 -1.483731 1.3757262 -1.6219591 2.611294 0.022723457 1.2737647 0.72506195
HP -0.3445299 -3.2435381 3.265108 -3.2745752 7.4709373 0.89178854 5.5250845 -2.0711992 -3.460141 -2.3203967 -0.113965325 4.725169
ARE 2.627167 4.2908435 5.017382 0.9919507 -0.46971282 1.7262465 1.3670802 3.4889839 2.315205 -2.4204514 2.393483 -9.270367
DVA 0.9461784 0.09254657 0.8693985 -0.49203447 -3.0120454 -1.0024813 -0.3585025 0.3462705 -1.1536034 -1.1849034 0.3320048 -1.6693345
MDLZ 0.11944531 -1.0200392 0.30482155 0.09932361 -4.4238257 1.432403 0.19119953 -0.48246026 -0.43341765 -3.6100516 0.52923274 -0.7171985
KMI -1.3316718 -1.9313821 2.346043 -1.4986548 3.4125133 2.033942 3.6238978 -0.33980975 -0.69298327 -2.663128 0.50599545 2.2139769
CTSH 1.0043745 -0.68812233 -1.3989173 0.7141653 -0.3449748 -0.28437477 -3.7888505 -1.253781 0.4820512 1.3264734 0.3395326 0.9352694
CRM 3.715961 -2.785581 0.62081116 2.779396 1.0818002 0.96637744 -6.689891 -0.22202073 -2.5612948 0.6720169 -0.49255732 0.1897417
FCX 1.0566591 -5.1558805 2.3629055 -0.70096004 9.701485 1.5937299 4.0723543 -1.4020214 -4.697301 -2.2829087 0.43224055 1.6685896
ADM -0.75301564 -0.45941994 -0.2593379 -1.3154389 0.539232 0.0714173 1.4451181 -0.5049264 -0.0204172 -1.3929868 0.54174215 0.70409006
PFE 1.8861113 0.4485815 1.5983722 -0.41771716 -6.3385286 -0.3444656 -1.9489313 -0.34573147 -0.426158 -0.7654517 -0.044762876 -0.47112435
CTAS -0.8042167 1.967803 -0.97983664 -1.3098979 -4.2159905 0.28362018 -1.2596096 -2.0402098 3.6352117 -0.19749336 1.2787676 -1.3387855
AMG 0.758401 1.5742837 -1.4300029 -0.30689806 2.7809348 -3.588643 -1.4862976 -1.6061835 0.6479484 3.6216962 0.7698774 2.11552
EQT -0.05542498 -3.421686 3.9609153 -2.3564336 4.7141724 1.8406124 3.2219272 -0.453894 -3.9560072 -3.0995488 -0.47424552 2.2183306
CCL 0.63866633 -0.008967129 -1.2922481 -0.021721337 -1.5573224 -1.1039011 -1.7230314 0.06682322 -1.2972878 0.9002716 0.47917098 -0.7977591
DGX 1.8458735 -0.02024164 0.40042925 -0.64801496 -5.339047 -0.8785422 -2.9736326 -1.0314196 -0.6306407 -1.3026979 -0.4543821 -0.32103217
AKAM 2.1603537 -0.32020113 0.53675956 1.2231132 1.5318004 -0.87751627 -3.9286735 0.19276926 -1.4982746 3.0225918 0.3862138 0.47873747
NEE -3.5853226 -0.66631234 2.3484488 0.71584547 -4.244826 8.495309 2.7026186 8.240177 7.6094327 -3.8615446 1.3437923 2.3087184
GT 0.80559635 -2.7336316 -1.0168351 1.9839865 5.2995353 -0.3092293 -0.10350157 0.56770056 -2.0119884 1.9700415 0.89541274 1.4864633
PEP -0.8885692 0.8498958 0.25060272 -1.0063896 -9.197651 1.8759832 1.3234721 -0.46052727 2.4144602 -4.708034 1.0245901 -1.1020986
GPS -1.7288513 -1.9180409 -3.8893664 -1.63106 3.2796288 1.2654275 2.4217718 3.290627 -6.057147 -1.4940614 0.6004326 -1.1934648
HCA 1.9810903 -2.2038803 0.6160849 1.4533294 1.0232434 -1.055569 -1.4050432 1.6111892 -3.4642162 1.1412251 -0.11663732 1.6355252
KO -1.1849607 0.7071931 -0.38903064 -2.8796246 -7.3820095 1.84298 1.4893701 -1.1835519 3.6190932 -4.7922516 0.40326193 -0.8401001
NFX 1.9023877 -4.9221663 4.5408874 -1.6202691 8.332461 0.72682726 4.2904296 -1.9970789 -5.950364 -3.0829308 -0.28500175 2.7840788
COF -1.6833937 4.2252917 -2.3860364 -1.5444416 1.2179158 -7.6285605 2.8761907 -0.3411853 0.9201728 5.7724013 1.8621906 3.6633928
PDCO 0.47781402 -0.5601714 0.65793806 -1.1021545 -5.23825 -0.2612137 -0.58075255 0.7644777 -1.5950488 -2.1879168 -0.2100088 -0.93180114
BF.B 0.07487199 -0.027402794 0.47637874 -0.69046634 -3.788948 0.5198657 0.84695876 1.1993018 1.1227008 -3.3295455 0.30036232 -0.94086593
LEG -0.9188654 1.2584572 -2.4551418 0.51052475 -1.3760482 -0.152835 0.36349824 -1.7360647 1.303054 -0.8880889 1.9297495 -1.7387553
MET -2.815798 5.4538527 -0.45157257 -1.2050612 2.5937045 -6.908661 2.685044 0.1837461 0.9183309 6.165661 2.2263956 5.4679747
SWK -1.6521103 2.0436988 -3.1857824 -1.63519 -2.5265095 -1.8730987 -0.2023202 -4.897308 5.525011 0.5653984 1.7509569 -0.22211306
NLSN -0.46565816 -0.6537492 -0.97395957 -0.41087344 -0.69469696 -0.37682807 0.5008196 -0.16967209 -0.741932 -1.0596703 0.74160594 -0.60054475
HRS -0.06697934 0.8779202 -1.5896404 -0.95838463 -2.7465677 -0.46359962 -1.8390466 -2.4514475 2.966323 0.34329322 0.4390063 2.2090626
SCG -3.0717916 -2.4249256 3.5548325 0.4503116 -1.20287 7.4200764 3.8660903 10.012805 4.785536 -3.5030215 0.5710319 2.4513733
MCO -0.117506646 1.1009835 -0.97732383 -0.50259626 -1.9470859 -1.3432882 -1.9884717 -0.12977396 2.2566206 2.156503 0.7646704 -0.035702337
SNI -0.5363032 -1.0677027 -1.8527142 -2.1823208 1.6520828 -0.49184966 0.42481878 -0.61821055 -0.08343335 -1.0288461 0.04445984 -0.57405055
PRGO 2.2815049 -3.7485 2.2984698 1.7359028 -0.24811554 0.4365881 -2.1078186 3.87137 -5.099427 0.06049619 -0.46925828 -0.09688561
CSX -0.16759194 -1.0459113 -2.1078408 -0.3036297 3.5146666 -1.103739 0.6672071 -2.6469955 0.37859163 1.134028 1.011441 1.349073
MA 1.4644516 1.6460382 -1.1828909 0.7654006 -3.4942424 -0.08415734 -4.7092743 -0.83029056 2.567955 0.4696411 0.28222492 0.41982692
ISRG 3.3166065 -1.1199065 2.0956802 0.9151872 -2.353135 -0.20134468 -4.3794174 -0.47815353 -2.2999892 -0.074355446 -0.5457256 0.9564956
DISH 1.3202623 -2.1165082 -0.30873477 0.6088759 3.0381253 -0.13082181 -1.5418288 1.063121 -3.0206518 0.65665954 0.1539439 -0.3886808
VNO 1.0932075 4.3975916 5.2072706 0.23519942 1.6851993 -0.71856755 3.832178 2.7675543 2.4788501 -2.4037025 2.605648 -8.7633095
WAT 0.609785 -0.26370683 0.14413017 0.30173126 -5.025874 -1.4558532 -3.7531636 -2.2019413 2.650381 0.20291896 0.32852495 0.3356761
NBL 1.264074 -2.4478736 5.030324 -3.6194172 7.457462 1.1303282 5.5266423 -3.0309525 -2.415473 -3.460516 -0.4652777 4.201324
VLO 1.036535 -2.470595 2.4231622 0.2239227 4.4481273 1.1508131 -0.061587527 0.46758354 -3.6139607 1.6085892 0.37558746 0.9267496
COO 2.315851 -1.0097367 1.0269527 0.8901415 -1.817642 -0.22761929 -3.9517488 0.8887813 -1.4258561 -0.28601792 -0.3925167 0.07818055
PSA 2.5741007 3.6595669 4.928815 1.2660275 -1.0566941 1.4165566 1.3335516 3.7199416 1.7849349 -4.2292438 2.160791 -9.425764
MRO 0.10218671 -3.6794188 5.3780026 -3.100516 8.942979 1.1028192 5.6123314 -2.8429577 -3.8533757 -3.4374638 0.056471925 3.9813344
CMG 1.6739132 -2.0602396 -1.7130477 0.43738446 1.2480448 -0.46311057 -0.9477735 1.2178148 -5.3618035 -0.22286002 0.09167806 -0.515515
NCLH 1.7500474 -2.311984 -1.4430729 1.300282 2.9428759 -0.3836433 -1.5708642 1.4208951 -4.3735895 1.3397361 0.45450464 -0.78356326
AYI 0.09265084 -1.4252495 -0.5027246 0.5179327 3.3775465 0.07711493 -0.15714204 0.27293026 -1.4431902 0.5844342 1.0087302 -0.9960591
FAST -0.5909712 0.029398762 -2.7943025 -0.21308003 1.827915 -0.8152396 0.9117843 -0.9716247 -0.040720213 -0.7651305 1.2084315 -0.59538954
ECL -0.86382234 1.6947964 -0.4289057 -1.4397076 -3.3085756 -1.3762195 -1.0485287 -2.8957639 3.9651873 -1.119875 0.8004109 0.39897367
CB -2.2068334 4.4868493 -0.37404776 -1.5778861 -5.908848 -2.4285097 1.7459631 -0.563952 3.2913659 0.498517 2.0376627 -0.3956535
HII 1.1077124 -1.3603432 -0.39424273 0.63241994 -0.063639775 -0.80073965 -0.8003832 -1.3644052 0.5200445 1.7446164 0.631655 0.77546316
CELG 4.612147 -3.4013538 3.6007714 2.600149 0.18606918 -0.36812276 -4.3255625 2.1666098 -5.004473 1.8183876 -0.9981452 1.8429161
STI -2.2047672 6.682784 -0.007896079 -1.6604899 1.7496854 -8.417338 2.9473991 2.094845 1.5312983 6.703888 1.9564153 4.830902
APH -0.4548462 0.5497575 -1.0519215 -0.653694 -2.6630044 0.5455399 -3.2473392 -4.0016522 5.743433 0.19955708 0.7085805 1.3972666
ITW -1.5603266 1.7774047 -3.6082163 -1.9117754 -2.2977245 -1.0981411 -0.77624124 -7.0839024 6.9348655 -0.47373062 1.602064 0.6210361
CBG 0.6711914 0.32525378 0.8821233 2.3386679 1.9651992 -0.9413447 0.013110652 1.1598263 -0.6280081 0.8197176 1.5114856 -0.31549814
TXT -0.8619048 -0.656193 -2.983651 0.20170316 3.2005823 -1.6192701 -1.0523145 -4.441172 2.2203164 2.0909252 1.3918566 1.4294416
FTI -0.95688885 -2.1356502 2.93265 -2.6983125 5.9015527 0.28256795 3.7517538 -2.662466 -1.6114699 -2.6892076 0.19078049 3.1402376
DG -1.2510248 -0.22978915 -2.7951283 -0.7472452 -1.2404377 -0.65627277 0.43855852 2.2110398 -4.7464147 -1.9670746 0.84407085 -3.0508382
JBHT -0.8556029 -0.95233905 -2.4988897 -0.46752223 0.69729257 0.109858505 -0.65407073 -0.93961436 -0.5353394 -0.06979907 0.6458797 0.993124
RCL 1.2586054 -0.96042365 -1.2339854 1.8765256 2.6664643 0.66981155 -0.9298996 1.8150812 -2.5647693 1.4694151 0.98821384 0.044458188
VTR 1.9401337 1.4217001 5.931985 1.4349242 1.9449283 1.1842766 2.3492515 3.211534 0.6014573 -3.6109753 2.1743674 -9.438821
PSX 1.1009189 -0.39207262 1.7026054 -0.22931722 2.4152777 -0.7220217 1.889221 -1.247859 -5.1521183e-05 0.5154272 0.65252006 1.894596
HBI -0.43242708 -1.6111546 -3.3872435 -1.5708466 1.2066203 -0.36869836 -0.80713147 1.458942 -5.7412143 0.48709926 0.018429851 -1.2773303
EW 3.5564866 -1.561411 1.6115247 0.45912033 -1.7690535 0.8236872 -4.3347497 1.7763683 -3.2984624 0.4127421 -0.94123304 0.114104666
CBS 0.37742236 -1.1840662 -1.4993397 -1.5131135 3.2791705 -0.72736 -0.4627095 -0.37064412 -2.155685 0.37138766 -0.072113045 0.663263
PGR -1.5377157 2.805431 -1.0421804 -1.5258918 -6.291555 -1.5568124 0.69908 -0.8691895 3.5168846 -0.91589236 1.3637253 -0.87362665
TSCO -0.4394362 -1.2293792 -4.0700774 -0.4669448 0.5641443 -1.119456 -0.74475694 0.9006162 -5.176614 0.17609842 0.47800246 -1.2152759
UNH 2.011534 -0.2671584 1.6781068 0.66824436 -5.2882247 -1.624678 -3.1274061 0.684752 -0.6810706 0.5459315 -0.32160398 1.609199
ALGN 3.1421778 -3.1440012 0.9597897 1.8427752 1.4202533 0.38414517 -4.6893277 0.94612294 -3.653802 1.0727334 -0.7339245 1.4832659
HES -0.17997347 -1.9305476 4.242129 -3.6973376 7.7767634 0.58124197 6.2559404 -2.9841924 -2.904838 -2.9842188 0.37048078 3.392504
VMC 0.35799524 -1.0046009 -0.8771449 1.8357143 4.1564693 -0.5913276 0.70975494 -1.2956846 -1.4170166 0.5063672 1.5966763 0.9167083
MS -0.39183244 4.315618 -0.09162213 -0.27010754 4.0593686 -7.701516 1.9315631 0.7157115 -0.7315126 6.322125 1.6948407 4.3662105
ZBH 1.2658054 0.080482624 1.0931013 -0.11539589 -4.1414013 -1.1909847 -2.363488 -0.68953145 0.100025326 -0.31450215 -0.11380371 1.537794
PCLN 1.838388 -0.799713 -0.8690472 1.0706855 -0.93237257 -0.57394123 -3.7028658 -1.0697788 -0.19134675 1.2524517 0.06532525 2.0865555
FBHS 1.2040735 -1.4523783 -2.2002697 2.900143 2.2671242 0.4296159 -1.6909057 -0.6669876 -1.3102413 0.85802466 1.5563838 -1.256881
SPG 0.5188452 3.5177188 6.054079 0.02530192 0.709212 0.7437183 3.2697427 3.5582993 0.72222465 -3.9671724 2.5958586 -11.058285
SLB -1.3489771 -0.59438574 2.1778963 -4.9891667 2.6649244 1.0038307 4.2420053 -3.4233918 1.0158963 -2.9445994 -0.21575855 2.7620685
DRE 2.3622363 2.9596484 4.4327903 1.612014 0.14065164 0.8641249 0.8087463 3.2431412 3.5278838 -2.892858 2.1325908 -8.787157
TEL 0.39931607 1.4548857 -2.4113195 0.042103365 -1.2539375 -0.33037612 -2.8929324 -2.8975384 4.237533 1.357276 0.9424096 1.4171017
NOV -0.08942888 -2.5039113 2.52046 -4.0853133 6.194637 1.5766667 5.3251114 -2.754705 -1.6526936 -1.7259364 0.028699677 3.0742133
URI 1.5835752 -3.3388498 -0.95230544 0.7335743 9.445911 -0.74244756 1.1869519 -2.6512628 -2.5518763 1.7397213 0.9553497 1.8850379
MAR -0.52842575 0.56085646 -1.9007268 0.10189537 -0.71800035 -0.482738 -1.6238542 -0.66684735 -0.2908871 -0.5141771 0.8816968 -0.3765233
FIS 0.22475381 2.0992515 -1.3487884 -0.30146503 -4.4190497 0.29010773 -2.716271 -1.9148047 3.3811731 0.3672782 1.1165959 -0.6223546
EMN -0.53435636 -0.6835361 -0.33764538 -2.1632707 3.1127381 -1.7551764 0.60005844 -3.751133 1.3411105 1.7441005 0.34418288 3.0358305
AMGN 3.4862523 -2.435448 2.4288363 1.6881887 -3.2323396 -0.58756584 -4.9857006 1.3568541 -3.1214793 0.65162206 -1.0685444 1.5172529
MHK 1.6360692 -0.71356654 -2.0030346 3.1065836 0.48411137 0.9129561 -2.4786453 -1.775666 0.107353285 -1.1662457 1.4918375 -1.9444252
HRB 0.73661715 -2.4766624 -1.2858164 0.36753538 0.7554057 0.01529384 -0.8141557 2.1934454 -4.275687 0.090203114 0.028211601 -0.1270777
MPC 2.7154436 -2.6851203 2.391348 2.1952324 6.3771186 -0.59988046 2.1459699 -0.43264428 -3.75267 -0.23682879 1.0552939 0.56422967
STX 1.7034284 -3.365445 0.58113843 0.91411006 6.2535415 0.2467853 0.53645784 0.44921425 -2.94748 1.8174726 0.4526053 1.2693704
MAT -1.3382165 -2.865518 -1.9968126 -1.2406921 3.236581 1.6645416 1.4394875 0.10190939 -3.0469558 -2.582739 0.5021038 -0.23900147
EA 3.656346 -2.369443 -0.016046457 2.4253523 0.1939069 1.4154029 -5.403424 1.4562185 -2.1931863 1.0483308 -0.53398496 1.6425271
FLIR -0.7521365 -0.6163754 -1.4173301 -0.62272495 0.385158 -0.35397357 -1.0187448 -1.1478553 1.3215216 1.333709 0.57697845 1.664466
BWA -0.39227554 -2.4353251 -3.6430051 0.24895497 5.217488 0.044526283 -0.12830083 -1.9428626 -1.4255658 1.1681936 0.97152513 1.6745967
TXN 0.5510499 0.33830062 -1.0450106 0.34704015 -0.16080268 0.004611548 -4.636488 -2.1205435 3.4246128 1.600375 0.13873638 3.0970855
LKQ 0.008213281 -0.043477755 -2.1920226 0.6926721 1.0701505 -0.14622952 -0.8927853 0.2852435 -0.9787087 0.7763828 0.9914462 0.18163234
ADBE 2.2154355 -0.18870097 -0.077023886 1.0237535 -1.4484969 1.0528245 -6.0725956 -0.96678156 0.4517305 0.9232117 -0.20175457 1.4652022
ADI 2.5412729 -1.498952 -1.5246693 -0.64491785 1.9631335 -0.16255684 -5.2807784 -2.1184914 1.9161553 1.9483485 -0.9831278 2.656752
EQIX 2.8601503 -0.77606225 2.487059 2.5184262 0.94032437 1.9973404 -3.6429949 1.9891433 0.001582239 0.15087453 0.6141419 -2.3642092
ZTS 2.887059 -0.76811975 1.567327 1.1985395 -2.6512537 0.03453973 -3.0637984 0.48856866 -1.1107602 0.6694745 -0.07437718 0.38286215
EOG -0.47760904 -2.2632287 4.6465187 -4.9173985 4.2902517 0.6398006 5.828672 -5.2518888 -2.8520167 -3.8239963 -0.31127426 3.882664
XLNX 1.3151522 -1.2029449 -0.52457005 0.20041357 1.263892 1.3239348 -4.4012084 -2.0913548 2.7721353 1.9770453 -0.14923474 3.411175
WYNN 2.5534942 -3.9867742 1.1012263 0.20752186 5.537831 0.95402205 -0.6923031 0.19879083 -4.4008675 0.5826362 -0.29263806 0.83912814
IR -0.6782042 -0.6172526 -3.0483656 -0.38350818 1.6442543 -1.1411104 -0.8086379 -5.0445976 2.8873265 0.9238152 1.1565697 1.2417135
YUM -0.3745843 1.6618762 -1.5856127 -1.4186425 -3.024013 -0.17165385 -1.5048416 -1.4734704 1.3661942 -0.9734429 0.68548954 -0.52682984
HAS 0.07687223 -0.6481483 -2.6350887 -0.27784944 -1.3336811 0.401534 -1.2273189 -0.21799767 -0.88389236 -1.2892892 0.512578 -1.5553497
CXO 1.2522805 -4.656274 5.2370677 -2.7096431 7.4549103 1.937198 4.1054807 -3.4633946 -3.544976 -2.598105 -0.49294484 4.025547
SNA -1.8123249 1.0891733 -4.3099766 -0.54936135 -1.2812297 -0.26958585 1.0839959 -3.1051135 3.406327 0.17162628 2.0487618 -0.3695116
ANDV 2.330636 -3.761492 2.5897734 2.7425387 6.322206 0.51398426 0.58103615 1.1871457 -5.0156693 1.4093091 0.8838928 1.8179988
PXD 0.80272096 -3.2140005 4.7286077 -3.4047678 7.499823 0.27443668 6.052532 -2.7029552 -5.174425 -3.0156026 -0.30726066 3.5387213
MGM 2.6739795 -2.9232671 1.4471167 1.7990092 4.679767 -0.6166592 -3.215475 0.6956444 -3.4453733 2.653794 -0.13107544 1.6784035
DLTR -0.5776792 -0.39565822 -3.2593267 -1.1156332 -0.5060751 0.3660069 0.53495115 2.3115454 -4.491411 -1.6984866 0.34366244 -1.3277463
AIV 3.039024 3.3101926 6.370089 1.9120742 0.19175279 1.5316578 1.3623044 3.7244523 2.3002985 -2.8797832 2.4603271 -10.367054
INCY 5.5523634 -5.7226295 3.2518756 2.7859147 6.4592957 -0.12212662 -3.5430286 2.5870404 -9.822402 1.5601516 -0.81477296 0.5091076
CHD -0.6739612 0.16544719 -0.61833256 -0.49507472 -7.3718214 1.8733294 0.5767043 -0.7548537 0.925975 -5.197619 1.1173184 -3.504725
AMT 1.0999625 2.215726 2.219738 -0.07648227 -1.6327939 1.8422607 -0.20347172 1.3004135 1.6442673 -1.7885494 1.4007331 -4.4957128
CNC 2.655959 -3.3189807 2.8802502 0.7244166 2.2443671 0.42609543 -2.8541813 3.0999525 -5.3300996 1.2603836 -1.0098168 1.8622476
UNM -1.7854943 4.6774263 -0.56968164 -1.2120506 0.9563398 -6.22732 2.3476133 -0.11732079 2.3333783 6.1643176 2.0776453 3.6770878
ALK 1.4662882 -3.068267 -1.0908443 4.373183 2.9867787 -0.06779305 -0.4677729 3.1944978 -4.622285 3.530401 1.7914883 -0.82085675
ALB 0.60071564 -1.6970997 -0.26446706 0.2583752 2.0111442 0.5083411 -0.4412957 -2.8485885 1.5202904 -0.27252913 0.5031658 2.9566007
CDNS 2.2971349 -0.57576 -0.7851946 1.0907501 -0.95377344 0.92099756 -4.980781 -1.3919536 1.1498177 0.6244502 0.004157429 1.1868052
GILD 3.826029 -3.3134 1.9147768 1.9529688 -1.3652275 -1.629929 -3.7182522 0.9664246 -3.7136297 2.400923 -0.7775075 1.2450411
HST 0.99187356 0.5986465 1.1492065 -0.23802915 3.838017 -0.2502456 2.48937 0.66517276 0.42635342 -0.73091143 1.6070468 -4.2770953
CTXS 2.265964 -1.0431432 -1.092183 1.3165054 -0.421191 0.60890144 -5.3096595 -2.1442323 0.49816006 1.3727887 0.1131726 0.7169549
AZO -1.3650666 -0.7523266 -2.3938246 -1.1603045 -2.291089 0.5596994 0.07961268 2.9220033 -3.266399 -1.4702468 0.34210697 -1.856366
JWN -2.0354433 -0.7265273 -5.427271 -1.706591 1.3499956 -0.6954996 1.6556776 2.649404 -6.6001697 -1.4774569 0.8729791 -2.5116737
AMAT 1.5551504 -2.7852294 -1.2323083 0.3326506 4.122142 1.0711969 -4.937835 -1.5066998 0.581548 3.1302624 -0.40514868 3.468805
FLS -1.4202394 -2.4146712 -2.8610086 -2.290955 5.713281 -1.0255642 2.79841 -3.9786227 0.8871165 1.6946337 0.9071099 2.4860022
CERN 2.6313922 -1.3488972 1.3663809 1.204404 -2.8601966 0.30245924 -5.4110594 0.9669991 -1.4605144 0.3161919 -0.56193715 -0.05000673
CPB -2.1847577 0.08332378 0.2080022 -1.0277041 -4.6686506 2.7326403 2.7476935 2.385375 -0.5121509 -5.8495197 0.98356414 -2.4220006
HOLX 3.1871917 -1.5496703 1.2710482 1.803527 -0.91580814 -0.7060217 -3.5051544 0.008557026 -1.6632856 1.8374017 0.048976064 0.55724674
KIM 1.3413703 3.222783 5.1933274 -0.2750975 2.409347 1.2099038 3.8631651 4.2564564 -0.21947338 -4.116256 2.3914664 -10.7019825
OMC -1.1732285 0.5078554 -2.7072368 -1.066509 -3.2258112 -1.1963493 0.42430085 -1.3980168 1.32173 -0.766268 1.1132302 -0.94641
SYMC 1.2449435 -1.1826502 -0.11505398 -0.30835986 -0.9114452 1.218848 -2.9258113 0.7922297 -1.1240826 -0.66883373 -0.41685843 0.3793303
WDC 1.6344267 -1.5355495 -0.26040998 0.045727193 5.778429 0.00035065057 -1.9180176 0.21548623 -3.3536625 1.5837001 -0.018536365 2.8111777
AET 2.9170372 -1.148432 2.3881724 -0.27772596 -2.3949192 -1.1168633 -2.6095455 2.2645183 -3.4946508 2.0880117 -0.75713927 0.13895287
DVN -0.7272951 -3.612593 5.439808 -5.3052526 6.788079 2.0991364 6.4516687 -4.33597 -2.7494886 -3.4970305 -0.113875374 3.466043
UHS 1.9938205 -2.0852003 2.2384083 1.0864149 0.8036838 -0.97888845 -1.7827613 1.2151266 -2.7881925 1.379681 -0.07279046 0.49877486
UAL 2.3602266 -4.522179 -0.6289244 6.4883733 5.397279 -0.44637966 -2.234849 3.0324948 -6.147896 3.401347 1.6983012 -0.31571916
ATVI 3.1016726 -1.5606809 1.2005336 2.1077 0.8996626 0.6432735 -5.1787686 1.7930361 -2.544824 1.2926849 -0.23660001 -0.15430914
HAL -0.664399 -2.3597133 2.862734 -3.3899763 5.3633556 -0.259124 3.871866 -4.599006 -0.8922463 -1.746852 -0.049647655 4.991418
AVB 3.4320045 5.033091 6.279549 0.31483716 0.33240467 0.6662311 1.5612395 3.9176908 3.748838 -2.5152962 2.1499798 -10.111593
SBUX 0.5802296 0.903674 -1.2664261 -0.44096014 -3.9223347 -0.41487455 -2.2925313 -0.47365254 -0.69744694 0.035151515 0.6761493 -2.36035
LMT 0.5635286 0.42777035 -0.9192021 -0.5819089 -5.1647353 0.5848617 -1.7013509 -3.191509 2.484531 -0.9002063 0.8427752 -0.7240284
BIIB 4.14184 -2.8706298 3.0229173 2.077168 1.5162286 -1.0139855 -4.698866 2.5514007 -5.6402335 1.5301763 -1.0634234 1.0299908
LLL -0.94803065 0.42960134 -1.3400439 -1.1216571 -3.5337555 0.55177623 0.009618063 -2.162912 3.8164797 -0.7357779 1.0158288 0.106768645
GS -1.4957936 3.5062335 0.71050084 0.08407409 1.4970742 -6.3867846 2.0551014 -1.3063363 1.2773869 4.5479856 2.2175841 3.337044
IFF -1.431563 1.2733203 -0.83471656 -0.6816775 -3.7268941 0.18164653 0.0062084775 -1.5530599 3.7250383 -1.206698 1.3043127 -0.072949454
WFC -2.1316266 6.6758447 0.52235425 -2.5744238 -1.2596215 -5.6934505 2.5122652 0.4352021 3.6493757 4.631026 1.9952515 1.8449366
EXR 1.9589926 2.3947883 4.7547913 0.7269947 1.7056258 1.6672359 1.7904058 3.1813433 0.8775784 -3.4729838 1.9908036 -9.169113
UDR 3.3309202 4.7592044 5.4452486 1.0968895 1.8220369 0.1342399 0.2626858 3.473142 1.65109 -2.9308643 2.2446966 -11.283461
MDT 0.8300445 0.10524771 0.9495527 -1.4751842 -5.985776 -1.0656666 -3.1012712 -1.3298119 -0.13639249 -0.4734438 -0.32824197 -0.054558054
KMX -0.6672734 -1.222915 -3.4303904 -0.08989358 3.103416 -0.24228187 -0.4060396 -0.5422698 -1.1901381 1.8479714 1.0642456 0.093758285
HCP 2.0628989 2.744662 6.307758 0.84822065 1.8986334 1.8135467 2.8717186 4.0388274 0.54851127 -5.6052227 1.9024827 -9.285858
MCK 1.2777524 -0.9920934 1.7606485 0.17754804 -3.0701625 -0.818184 -1.6892644 1.8497356 -2.9921901 0.11272726 -0.23499823 0.45362964
CA 0.68613535 -0.27270955 -2.5955255 -0.5947513 -1.3790759 0.12611441 -3.737156 -2.4752684 1.2840691 0.48262492 0.12141974 0.74926925
UNP -0.8173587 1.1674922 -1.7517052 -1.4886998 0.5992299 -0.89419353 1.9092857 -2.8315868 3.4302464 1.1028256 1.3906157 1.5779945
SYK 1.4025228 0.24866156 1.5373739 0.4586137 -7.3917036 0.3118001 -3.1254091 -1.0155351 0.7019126 -1.5890102 0.18561411 -0.4404702
BAX 1.0631174 -0.053881425 0.22074217 -0.12550192 -5.729231 -0.3948987 -2.8666444 -0.70740044 0.8077499 -0.0704336 0.110571295 0.5711435
ROP -1.0924525 0.89664537 -2.2594986 -1.9108013 -2.9900308 -1.4723314 -1.650808 -4.806769 4.3262076 1.2076643 0.86555046 1.0872239
ALXN 4.6036925 -5.483173 4.0434585 2.8606522 3.743583 -0.10380651 -3.609967 2.797131 -8.259535 2.4884725 -0.90795636 2.0450919
AOS 0.13350473 -0.2396606 -3.0959053 1.0162913 0.5304333 -0.5678765 -1.8898653 -2.9840267 1.1125807 1.2535088 1.4692715 -0.42497844
CHRW -0.587822 0.0068750354 -0.63615406 -1.4886407 -1.2910117 0.36170974 1.052579 -0.6247051 0.70642924 -1.505628 0.6522933 -0.5600299
CVX -1.662856 1.1079869 1.8689697 -5.845719 -0.2775862 -0.074530035 4.7696915 -4.307015 2.7340188 -2.265585 0.015518382 3.016922
APA -0.30971068 -2.1549702 4.361051 -3.3204112 6.133262 0.33303025 4.8764544 -3.3353336 -4.0909634 -2.4682477 0.14274742 3.940194
JPM -2.6191719 6.1124516 -0.47575253 -1.4545567 -0.3584155 -6.5616283 3.035926 0.22794649 2.2516186 5.8807306 2.4660218 3.9927828
CAH 0.9964527 0.38403755 2.2851765 -0.6901248 -4.5073705 -1.3589536 -1.6521448 1.493406 -1.2497439 0.29059383 -0.35175696 0.90565807
BLK -0.43996096 3.6231284 -1.155888 -0.7920311 0.67481744 -3.6129985 -1.2111555 -2.8493106 3.5082633 3.115494 1.45671 1.7233628
PPG -0.3861877 0.49636588 -1.8527083 -0.9863672 -1.5202862 -0.68585086 -0.5095859 -3.020169 3.0355525 0.4155944 0.96684605 0.17083111
ESS 4.1111407 3.6045892 6.822688 1.6812527 0.052533355 0.6703967 0.87082386 4.132996 1.8092171 -2.3394072 1.9322499 -9.405366
PH -1.3735439 0.23451898 -2.7482865 -1.8463284 2.0468323 -1.5214568 0.8991941 -4.9722776 4.377099 1.3655471 1.2284777 2.2691715
MTB -3.271456 6.138365 -1.0480978 -2.4334102 0.13819104 -5.920674 4.064981 1.1959417 2.6812403 5.1101694 2.2705503 3.9289894
INTC 0.73681766 0.28622347 0.007430307 -1.1989189 -1.2741908 1.2635964 -2.8057594 -1.1576601 2.4872975 -0.8183988 -0.34420517 1.8706589
ROST -2.5778298 -0.3344713 -4.340525 -2.1375206 -1.9130018 -1.2770097 0.7981213 1.413133 -4.6217012 -1.9110748 0.49966595 -2.3077207
WMB 0.39846337 -3.2559063 3.2098792 -1.4586967 5.236625 1.6508212 3.5956395 -0.32892236 -2.2684894 -1.9650472 0.068556115 2.2043626
NTAP 0.7002099 -2.647267 0.031972148 -0.46842742 3.5223875 0.15101683 -1.5073159 -2.0386517 -1.2151036 0.65784186 -0.10632124 2.074943
ANTM 1.6480571 -0.21857297 2.2911575 -0.6933607 -2.5246634 -1.2829208 -3.6559095 1.6193335 -2.2856 0.64264953 -0.91012335 1.3711319
LH 1.2656033 -0.12590013 0.90615565 -1.0476369 -5.6171274 -1.1091601 -3.2592678 0.06146611 -1.5005571 -0.35339352 -0.4309369 -1.1718295
VRSK -0.5505334 1.83859 -1.0870017 -0.41666165 -4.062147 -0.2598336 -0.86275876 -0.4697429 1.7690803 -0.42583477 1.1087348 -0.99157083
ZION -0.9693725 5.0362806 0.66209 -1.1616962 5.586617 -7.943119 4.1335406 2.6175776 -1.4067719 7.034027 1.8440043 5.0992393
FL -1.3760284 -0.8804586 -3.4296029 -0.3608273 1.0365347 -0.011121058 0.5253396 2.9989984 -5.43302 -0.53203535 0.9947595 -2.347356
CTL -0.6982727 -1.4902065 1.1486593 -1.9991122 2.0126393 1.9696658 3.2456944 1.9764253 -1.7555857 -3.180282 0.48201275 -2.0703542
RL -1.6199187 -2.1844473 -3.754819 -2.402038 1.7166303 0.119255245 1.7911496 0.31776115 -3.8728538 -1.4057059 0.25772652 -0.8446462
FISV 0.025833838 2.1851635 -0.20306176 -0.55086684 -5.2287397 0.25167143 -3.328804 -0.9678314 2.741636 -0.84941226 0.54127014 -0.18052736
CHTR 1.2512007 -1.8746272 -0.22580862 0.26966205 1.7957689 0.20048293 -1.4038663 2.1794047 -4.1621466 0.23040196 0.23669675 -2.3352857
COL -0.64559764 1.3992969 -1.0401398 -0.7754597 -3.5185199 -0.23327368 -1.288051 -2.121426 3.936678 -0.14618069 0.89270234 0.558862
WYN -0.21604826 -0.32301238 -2.6198869 0.57674646 -0.99095076 -1.2272118 -0.3044453 -0.97627795 0.34018072 0.71909785 0.9951461 0.58884436
AWK -2.7275977 0.38512912 3.5437684 -0.48356643 -3.0916948 6.0565925 3.0101252 5.9764156 4.8521786 -2.9356177 1.3600053 -0.08171098
XRAY 0.36848328 0.3261879 -0.20257853 -1.3198686 -3.5826268 -0.82414865 -2.6047597 -0.7145732 0.49608612 -0.02926086 -0.15688011 0.08687955
TPR -1.0360812 -1.4599521 -4.4458785 -0.61264133 1.3706833 0.5824172 1.2478828 0.8816449 -2.7517288 -1.1348814 0.7402479 -0.5792777
TGT -2.2718308 -0.0057390537 -3.9286718 -1.652342 -1.7755728 -0.5961545 0.9528109 1.8035991 -3.7097275 -2.588236 0.65308654 -2.4114175
KR -0.86300796 -1.1112869 -1.6854473 -1.1651268 -2.0831923 0.38198894 0.62131083 1.904453 -4.327812 -2.35183 0.2536439 -1.8795626
GGP 2.0442674 2.9547098 4.6402435 -0.068822645 2.3700237 1.4123244 1.9258682 4.4545813 -0.6659418 -3.119995 1.6408604 -8.833642
GPC -2.0446541 1.0480607 -4.4536066 -1.2547886 -2.3800545 -0.3738037 0.54745597 -1.2245164 1.8477093 -0.9221294 1.4680655 -1.6786014
MCD -1.0758604 0.9890023 -0.8878403 -1.615555 -6.9269924 1.2657561 -0.9750819 -0.21425238 3.6466537 -3.2478492 0.49663094 -1.2184675
CMA -1.849966 4.9774923 -0.5035004 -1.4949703 4.711231 -7.0366154 3.9907591 1.1415776 0.33230805 7.735464 2.4519548 4.1137896
DIS -0.90014845 1.3159373 -1.9328822 -2.118014 -3.3651516 -2.1578999 -2.1476874 -1.1629076 1.066853 0.11088514 0.21405557 -0.9503457
PNW -4.1695657 -2.2206883 4.1431966 0.2648361 -3.6517324 8.826429 4.867546 9.506387 5.6750817 -1.8419693 1.71123 1.2912915
AME -1.2827692 1.6460489 -2.4537923 -2.0294125 -1.321514 -1.4365367 -0.23991507 -5.236077 5.0347314 -0.25888816 1.1730736 1.0946444
VRSN 1.1778759 0.44678426 -1.0270414 0.7390427 -2.8993754 -0.25254145 -4.330005 -0.96601593 1.9621714 1.0215056 0.63464266 -1.6112627
CMI -1.1905814 -0.4019702 -2.8065858 -1.9441451 2.8166974 -0.90331084 0.837295 -5.178366 3.3397746 0.80977935 1.0528324 1.8391024
JCI -0.93255 -0.62636507 -0.9469276 -1.8172857 -0.1340358 0.25252798 1.0474375 -1.6512834 3.235391 -0.039428454 0.7143109 -0.30406725
ABC 0.86401796 -1.0666946 1.3837299 -1.1127412 -4.29243 -0.76847684 -3.1942132 1.1672686 -2.3636734 -0.60629725 -0.6530112 -1.6663463
PKG 0.34948543 -0.6287771 -0.039528485 0.5855777 1.470402 -0.62761205 0.9499173 -2.2038403 1.632968 -0.4632488 1.1510063 0.738399
DE -1.5810863 0.2732998 -1.309481 -2.1237764 -0.480194 -0.1292995 1.926394 -3.8328993 2.9297953 -0.93709874 1.1770631 0.52963275
REG 2.7135234 5.0769644 5.724071 0.74573076 0.8909794 1.6909198 1.8581872 4.4847026 1.6593579 -5.3713846 2.172249 -10.384074
MTD 1.23126 -0.4319334 0.06784861 0.82747996 -1.6057336 -0.32402998 -3.4728496 -2.6417441 2.232174 0.6909895 0.4086603 1.511437
GPN 1.3929507 -0.16332553 -0.60182405 0.8732041 -0.2948958 -0.2652869 -3.37075 0.10751231 0.6701208 0.9292221 0.28353572 0.22880846
RSG -2.4150286 2.0003898 -0.325479 -2.0561254 -5.880374 0.03185372 0.18408367 -1.5938914 4.4468737 -2.7305367 1.0187743 -0.34570193
NUE -0.68915117 -1.1830918 -0.021618888 -0.767748 4.769334 0.26564306 3.194486 -2.3515565 -0.45944008 -0.18539834 1.4250461 1.1291665
BXP 1.7663765 5.0612392 5.3824177 0.9322422 0.6393105 -0.31078476 2.7184594 2.4980495 2.3009474 -2.384031 2.9064085 -9.887662
SLG 1.6052563 4.1440525 5.231168 0.3876676 1.6666965 -0.3118112 3.365281 2.8406656 1.307261 -2.5148485 2.3726907 -8.463921
AON -1.2897234 3.3676417 -1.0701456 -0.38975495 -4.65314 -1.1497617 -0.17032541 -1.9178705 4.077818 -0.4557646 1.8382626 -0.07172991
DISCA 0.7203592 -3.348549 -2.8856435 -0.98139346 5.7924604 -0.3071992 0.479158 2.103548 -4.279319 0.256169 -0.36237794 -0.43710497
PFG -1.8405796 4.317399 -1.2091672 -0.45149064 1.1975014 -5.7352405 0.7906681 -1.7313333 2.4002829 3.664149 2.0574439 2.9858544
CCI 1.134257 1.1537976 0.99566084 -0.5286945 -3.5697467 1.2517455 -1.5652691 1.1208574 1.7500194 -2.4094002 0.535558 -3.5525236
ESRX 1.6116296 -0.15293726 0.31398174 -0.3848574 -4.295648 -0.09858898 -2.5814288 1.0285088 -1.5404619 -0.6988491 -0.23062705 -0.7442357
IBM -0.9977609 1.3473477 -0.5288752 -1.6037596 -4.0417237 -0.21899295 -0.47962976 -1.6786431 3.4152007 -1.483498 0.648171 0.44961262
LYB -0.07903537 -3.196049 -0.6282325 -0.54574937 4.706562 -0.93948627 0.8886477 -4.1525884 -0.07041283 0.6604792 0.47222796 3.4626882
PM -0.80558485 1.5949332 1.0403397 -0.8473035 -6.046894 1.1192375 1.4424998 0.88354176 1.7825247 -3.889198 1.0458609 -1.560954
ORLY -0.9447716 0.22794534 -2.6576674 -0.9549902 -1.9539912 -0.05526845 -1.0548649 1.0335131 -2.581227 -1.7937781 0.4775175 -2.1497464
TMO 1.9276615 0.47015637 1.095406 0.17466825 -4.593179 -1.2989352 -4.492075 -2.0703936 1.8489084 1.0203944 -0.047521815 1.3497634
PNR -0.03406563 -0.6651811 -1.6617773 -0.8938774 4.282547 -1.9141461 0.78355366 -4.8757396 2.9058833 1.6528319 1.0937648 2.1268773
PX -2.0959423 0.58980936 -0.9546188 -1.6171257 -3.172883 0.42812914 1.6138421 -2.941633 4.00921 -0.28160334 1.3924304 1.1291509
APD -1.4741057 -0.076778434 -1.4698267 -0.5688251 -1.7316864 -0.9168699 0.43172938 -3.5477123 2.9364648 -0.79096746 1.2571403 0.84046304
TWX -0.9172741 1.0481246 -1.2048718 -2.1682675 -1.8059309 -0.30276546 -0.28646556 -1.3879 1.5257056 -0.7924828 0.4630589 0.74331844
BSX 3.425162 -1.8258133 1.4051373 1.8704144 -3.5742486 0.03300072 -4.053568 0.74862367 -1.1066498 1.3662359 -0.25273636 0.12535141
CAT -1.7212936 -0.4604462 -1.2781676 -2.3584464 1.7473259 -0.5614333 3.3309526 -4.5694175 3.621002 -0.78382945 1.0621053 2.8650525
AAP -0.47167492 0.17653252 -2.46492 -1.5436977 1.107224 0.10336814 1.1641052 2.0591414 -3.923435 -1.5514828 0.54227036 -1.9543483
LOW -2.164992 1.2048297 -3.475459 -0.5470242 -1.4979795 -0.8547484 0.6698084 0.63398623 -1.7573698 0.88238907 1.9140905 -2.7521765
GOOGL 3.7213397 -0.052731615 -0.39304686 0.36623442 -4.5416436 0.026685668 -6.4524508 -0.6704428 1.3180813 1.9497678 -0.84052056 1.5595517
REGN 5.1957464 -5.153539 3.563499 1.8818207 3.2909298 0.17478587 -4.3415103 3.4693747 -8.122122 1.4604201 -1.666356 1.9580737
EQR 2.5090632 4.137461 7.3998804 0.24769257 -0.7090603 0.56204456 0.71874374 3.409527 2.417238 -3.075975 1.9228756 -10.635266
HD -1.8267232 2.561907 -3.6577456 -0.6677832 -4.2004843 -1.8761983 -1.3315492 -0.15555862 -4.6541218e-06 -0.9841919 1.4379774 -3.047131
XEC 1.5717593 -3.3292294 5.2059245 -3.701291 7.6045985 1.2108663 2.4339445 -3.3567297 -5.1384745 -2.2258 -1.0254009 4.4099927
COG 1.2560393 -2.4183404 3.5994298 -2.3668172 7.0194225 1.938493 4.2231226 0.13574411 -4.820702 -3.1756725 -0.14857566 1.0586574
HBAN -0.6929125 6.1058164 0.1947751 -1.3286837 4.7417912 -9.19329 3.5024514 2.7235396 -0.6251881 7.394432 1.9015841 3.6625679
HRL -0.5420404 -0.356681 -0.6828671 -0.32405806 -4.6700187 1.5511848 1.8878921 0.8607351 -0.7981435 -3.9058769 0.99351865 -2.0769703
UPS -1.8945104 0.8138302 -3.6280096 -2.337204 -5.241941 -0.5693104 -0.55182976 -4.278262 3.4885402 -1.4633418 0.6783957 1.3527219
SRE -4.169424 -0.86001354 3.3395534 -1.1342742 -2.8641346 6.447587 3.4619691 5.9727488 5.4965477 -3.5291462 1.0511978 1.5582395
NOC 0.32220942 -0.18823369 -0.838813 -0.58775806 -5.761879 0.32593077 -1.8941256 -3.3363829 2.1115768 -0.17868385 0.77978593 -0.59078735
STZ 0.06737748 -0.61964506 0.19254391 -0.34132865 -4.145838 1.9155852 -1.8332881 0.119290926 0.38943335 -1.5756971 0.36422864 -0.7796794
MSFT 1.3521409 0.4330681 -0.918602 -0.0719314 -1.8149068 -0.14868227 -3.9043858 -2.317762 2.7222643 0.9142497 0.2887318 0.93528533
IP -0.096646816 -0.5187342 -1.6317289 -0.24646874 1.8749793 -0.14540984 0.6749187 -2.6798732 1.9069442 0.6211211 1.404151 -0.433619
PRU -1.7917655 4.0421796 -1.3214045 -0.887546 2.2664561 -6.258825 0.9687363 -0.79874367 2.2037902 6.658582 1.9443438 4.0666995
KEY -0.6551152 5.567479 -0.52234685 -1.4330564 3.1502147 -8.200783 4.449724 3.3255239 -0.23172483 8.660402 1.9245651 4.90124
RRC 1.2471014 -5.9633117 5.1071453 -2.8443024 8.430582 2.4009268 4.545056 0.9710956 -6.9439845 -2.6739764 -0.75949055 1.4855729
XL -1.4866681 2.060074 -0.3457154 -0.3372831 -3.3813648 -1.4354565 0.55777097 -0.6077625 2.3724208 -1.3385382 1.5476542 -1.0754745
PKI 1.3951119 0.2692698 0.23620963 -0.46316355 -2.8214352 -0.98119766 -3.8014967 -1.5342679 1.5941268 1.4902073 -0.024393698 0.8430184
FRT 2.1371276 3.7100904 6.1287613 -0.07206811 0.71993953 1.2520719 3.1630883 5.477038 1.325511 -4.379169 1.990672 -11.258242
BMY 2.3167503 -0.5101206 2.4505093 0.47331557 -3.3338282 -1.1027085 -3.2395604 0.8472994 -3.2001483 0.65711176 -0.4289187 0.31391013
ORCL 0.21929595 0.27953216 -0.9427777 -0.48615637 -2.921205 -0.4701302 -3.2399182 -2.6670377 3.114853 0.28544414 0.55537754 -0.5189201
ICE 0.357196 1.272006 0.88701314 0.7016891 -0.70070153 -2.188991 -0.63463664 1.4255532 -0.7686779 0.92408955 0.8275925 0.26676387
ES -4.3763237 -0.90895784 2.6709177 0.87334365 -2.7910373 8.695487 3.5577905 10.277715 7.069525 -1.8118498 1.6537194 2.729575
DHR -0.011668335 1.6662719 -0.5332839 -0.5662598 -5.757423 -0.5586778 -1.5474312 -2.7435622 3.1520448 -0.7591382 0.9252175 0.5570862
O 1.9798609 3.5763855 6.1461215 0.76403785 0.3135777 1.481474 2.3692787 4.93707 1.8485821 -3.0152261 2.2085435 -9.356926
IQV 2.8953793 -1.13217 2.09686 1.2800758 -1.7447534 0.27978274 -3.5911188 1.9547702 -2.4494846 -0.049523134 -0.4678135 -0.14194371
COTY 0.52419144 -2.7717023 0.4429236 0.26520208 4.0468016 0.8348444 1.4227433 2.1652162 -4.6637206 -1.5281708 0.19409321 0.13323261
FOX -0.11586381 -2.881898 -1.2760928 -0.91153234 0.97422004 -0.63624835 -1.654038 1.6718506 -1.9995145 0.8111458 -0.44924292 -0.30483803
FOXA -0.020465989 -0.70103467 -2.2075582 -2.2363281 2.725927 0.10784152 -1.9624859 1.4313889 -1.928084 -1.3447298 -0.8799589 0.19700348
NWS -0.4935681 -1.8767107 -2.2980354 -1.002557 2.17325 0.19942228 0.6097339 0.0038435443 -2.200087 1.7352749 0.82939404 -0.7909608
NWSA 1.641072 -0.1888121 -1.6590686 -0.05104721 3.6639266 -2.8848982 -0.07795108 -0.19162585 -1.1800709 -1.2120706 0.08202948 -0.09453313
ALLE 0.72314185 -0.16446908 -2.1470244 0.7932149 -0.2537883 0.09557935 -1.8467933 -1.1801213 0.2787022 0.33540177 1.1620399 -2.4652336
GOOG 2.2731545 0.568902 0.12441332 3.6572578 -4.12083 1.4426494 -8.465639 -1.1171153 0.48117423 2.4600122 1.0170066 -0.3457872
NAVI 0.7563752 -0.883239 -0.20577414 -0.07995165 6.281492 -2.4255574 1.4697653 1.7734783 -3.926462 2.6081698 0.80104446 0.6871702
INFO 1.0602456 -0.7480684 0.17556728 0.09974295 -0.36179802 0.505054 -2.183309 -0.054684933 0.1486613 0.29774454 0.22831908 -0.13490364
SYF -0.17884758 1.5034217 -1.1752436 0.14591056 2.9185674 -2.7529912 0.8719611 2.7070222 -1.8571334 3.198976 1.3990982 0.043828405
CFG -0.07097277 3.3545127 0.4160633 -0.39889827 4.1451654 -6.1577735 2.6591926 2.4192896 -1.7239083 5.5481176 1.4875991 3.2703595
QRVO 3.4686542 -3.907308 -0.16252458 2.6176522 6.1718073 1.6280005 -3.3189526 2.277497 -3.488818 1.2194754 -0.36669925 2.3226018
WRK -0.10364862 -1.5268015 0.32646927 -0.28502753 3.2473848 0.1944098 0.77322 -0.20073377 -0.3186693 0.09409779 0.6275536 0.9502882
PYPL 2.0405393 -2.6208563 -0.8024026 1.3871585 0.6682681 1.4959166 -4.8740206 0.31627247 -1.0831125 0.79186755 -0.49345154 1.7708398
KHC 0.023546506 -0.20464414 0.8747123 -0.6115864 -3.3406954 1.3901645 -0.3272266 -0.076554306 0.8782158 -2.971471 0.5107806 -0.9446002
HPE 1.172847 -1.5677465 -0.1512427 0.56269115 3.3705292 -0.025177978 -1.4256172 0.56087 -2.3681028 1.2665933 0.39163917 0.35199693
HPQ 0.76645404 -1.5971547 0.18260461 0.45354483 2.9017296 0.41931555 -1.0083748 -0.5323147 0.21391103 0.5803177 0.44648054 1.2221862
CSRA 0.96114963 -1.8991166 -0.42575675 0.8296646 1.8468486 0.39004782 -0.62242013 0.6308138 -2.0634565 0.197352 0.5678851 -0.45948035
WLTW -1.0604726 0.51965004 -0.10644808 -0.5322001 -1.6977029 0.056226827 -0.1494627 -0.84193933 2.473586 0.40685827 1.0061406 0.70559055
UA -0.22411662 -3.4720929 -0.8567719 -0.47414044 4.5103045 0.6973459 1.9316411 2.7087476 -7.181168 -1.1679127 0.3050504 -0.68352693
FTV -0.059863947 -0.06895541 -0.6946896 0.28101206 -1.8032699 0.19391952 -1.1183523 -1.6634161 1.8175666 0.12113152 1.0042928 0.46729895
EVHC 1.387767 -2.4797845 0.49333504 0.44112748 2.6694505 0.33925086 -0.44612288 2.4118392 -4.782903 -0.03391203 0.13576654 -0.8703179
HLT 0.28059858 -0.635485 -1.0624765 0.037830967 -0.19901814 0.048802342 -1.1739306 -1.0958823 0.8196022 -0.017302511 0.53036827 -0.08990446
DXC 0.8310807 -0.61127466 -0.4284226 0.10042255 -0.7458151 0.32779336 -2.0895083 -0.97857785 0.8811284 0.14293598 0.4076854 0.5137283
BHGE 0.15287739 -0.89017016 0.6053506 -1.1190757 2.13823 -0.12965707 1.3550014 0.4473096 -2.131686 -0.7558191 0.542896 0.3141202
BHF -0.087147325 -0.4105913 -0.45566085 -0.5743219 0.88214695 -0.573569 0.08045548 0.28389958 -1.1614401 0.5443656 0.56939286 0.9957937
DWDP 0.56104404 -0.033671804 -0.53089076 -0.25288144 -0.25577334 -0.49480546 -0.82005805 -0.7791269 0.44250065 0.1278127 0.61240894 0.12714167
APTV -0.02451085 -0.19072497 -0.19940437 -0.45763978 0.36098063 -0.58991057 0.08874621 -0.4873463 -0.035518773 0.098819345 0.6745782 0.5769256
