505 10
AMP -3.6393015 -2.985935 -6.781961 1.1121085 0.04911817 0.29336187 4.1630077 -3.4141407 -6.141498 -2.2288997
BLL 1.968235 -0.12919116 1.0775237 -2.5267985 -1.808803 -1.137397 2.1255853 -0.68267375 0.7324399 -0.6198599
PLD 7.1206794 -0.08300551 -1.2889992 -1.0085152 -7.8053603 -1.315294 -1.2184128 6.1186223 -2.4809306 5.037883
CMCSA -0.4623678 -1.4600062 0.9402102 0.033661906 0.030439503 -0.17870136 1.422201 0.52086437 -0.0100378115 -1.01283
CVS 2.3108122 -2.3141828 4.4836144 -0.73971015 -0.90887916 0.6464023 2.5096278 1.3187193 1.7863058 0.32549667
MSI 0.22199266 0.06285077 -0.21351857 -2.2950656 0.86059505 -2.938844 4.199892 -1.4869813 -0.86571157 -1.9361202
TSS 0.83102036 -0.009640762 0.41262466 -1.343762 1.7032222 -3.9306118 2.947434 2.2284696 -1.1390861 0.4095525
DUK 6.7572446 5.556994 2.5511143 -0.43561432 -13.440691 2.1933615 -0.15872905 -3.4160526 7.0975986 -9.325239
WEC 6.0337524 6.930664 3.2097929 -0.1784234 -12.962974 2.6208625 -0.696526 -4.095245 7.482427 -8.351489
ULTA -2.6419537 -0.4117789 0.815563 1.2252704 1.9112381 0.5149725 -3.4781182 3.9861224 1.1079419 -0.2142728
ETFC -5.472907 -1.2957898 -6.43562 4.021251 0.77310616 1.2716105 0.20462352 -0.59809583 -4.02243 -1.6276143
FMC -3.5236397 0.15712632 -2.6814332 -1.9283844 1.7121838 2.3244157 -1.2112566 -2.4125295 -1.1824297 0.8829362
PCAR -1.8886501 -0.9496117 -2.9408045 -2.9806275 1.2539437 -0.19324522 1.3828787 -2.2533355 -1.5016131 -0.9179277
MAC 6.3946977 -2.1428733 -1.3017843 -1.7275907 -7.3343735 0.67318314 -3.2991254 7.077645 -1.7567829 4.4505286
TMK 1.5652132 -4.7369866 -2.5651517 -2.2702565 -0.8963498 -2.1545403 9.421827 -3.6765995 -4.430226 -2.583063
GWW -1.6772473 -1.8339933 -1.7939577 -3.9605954 1.6853799 1.8122903 0.43379375 -1.9417573 -0.32681018 -1.5082483
ARNC -4.119213 0.8071686 -2.4840324 -0.40271655 0.9126867 3.674472 -3.6334443 -1.2301729 -0.13866477 2.4863653
ALL 3.102405 -2.992183 1.1426601 -2.030532 -1.8526639 -2.264315 6.827423 -1.2656564 -1.0358363 -2.196708
MO 5.8889623 0.2532939 6.6027145 -4.58042 -2.7601795 -0.9658842 3.5063753 -0.17674091 4.358721 -0.60277575
CBOE -0.7133223 0.32871628 0.2088994 1.7785752 -0.48322946 -0.7121351 1.2112193 0.901269 -0.3459594 -0.44797632
AAPL -1.2339042 1.7689881 0.28299472 0.14410743 1.2631497 -1.9996647 0.48791373 0.8386404 0.2737772 -0.65611875
EIX 5.55713 5.4068456 2.6892395 0.3493964 -10.748881 1.6575965 -2.3680673 -0.04391747 6.0346904 -6.423065
AMZN -2.4907444 3.6386526 0.87096596 1.7732598 2.2753336 -3.638452 -0.30732808 1.8338794 -0.06875896 0.51498103
TSN 0.86738294 0.3711555 3.2085364 -0.20616458 -0.7620495 0.55740947 -0.693528 1.9433019 2.737253 0.87609684
LRCX -3.9047234 4.191136 -2.0326235 0.3446347 2.4739099 -1.4660264 -1.2606764 -0.71651965 -0.31585103 0.019578196
STT -3.3042607 -3.6611497 -6.0017686 2.6648705 -0.37380782 -0.3494596 5.006873 -2.8596437 -4.938293 -2.6016395
LNT 6.031976 5.040124 1.7854958 0.9293555 -12.915273 2.9099257 0.18487218 -2.8254802 5.9722447 -9.60112
SBAC 0.54016817 0.7179664 0.03613095 0.3814244 -1.9479977 0.63063216 -0.37188044 1.1952128 -0.37293398 0.7292948
AGN -3.927848 2.9516034 2.1658633 6.7731085 1.4315567 -0.26498383 -1.8985623 3.2121756 1.3725466 2.3598523
NSC -1.2667254 -0.008016518 -2.3365664 -4.081997 1.2440892 0.22611128 -0.075113915 -1.8146175 -1.0568384 0.29882303
LLY 1.5625561 0.8382136 4.598672 2.467704 -1.3430111 -1.5198582 2.7269084 1.4314288 2.4897854 0.43716216
OKE -1.5001785 2.145917 -0.65357643 -1.0531862 -2.354074 6.833507 -4.4062285 -2.1693711 1.0437925 2.99838
MMC 3.163399 -3.514566 1.3832649 -3.8425004 -1.0345744 -2.9593313 8.079606 -2.7206128 -1.1390935 -2.1016693
SJM 4.108545 -1.9296529 5.616933 -3.2686145 -2.1835172 -0.1708825 1.8346422 1.2354742 3.81167 -1.5363948
AIZ 0.018922875 -2.8117182 -2.557818 -0.5738333 -1.0542547 -0.18681487 4.3964925 -1.8270332 -3.2632687 -1.111937
PPL 5.1933875 5.3865914 2.7443519 -1.1176077 -9.913953 1.4133049 -1.2743961 -1.8601358 6.115983 -7.015631
NKE -0.27138838 -2.7611148 2.9777615 -0.0026567152 2.004089 -1.4252279 1.3271583 3.128481 1.239333 -1.5460098
JEC -2.8058105 0.9180089 -3.0381312 -4.1196113 1.2918903 2.0592122 -0.71785957 -4.1980577 -0.3969547 0.004357372
AEP 6.8800707 5.7419467 4.265411 -0.56189257 -13.126143 1.7011765 -0.7426709 -2.4731307 6.958735 -9.178106
DTE 6.547692 5.23145 3.478254 -0.66843975 -12.447935 2.6878111 0.2921349 -3.4448605 6.512875 -9.126657
SEE -0.20111275 0.8657216 -1.1929007 -1.4164778 -0.74509746 -0.61689866 -0.9366361 0.5092748 0.91502947 -0.4559509
ED 9.313379 5.892499 5.426366 -0.8903463 -15.79212 1.9969482 -0.12868865 -2.4363241 8.843111 -10.850372
ABT 0.7676837 -0.5935873 3.1603086 2.2148929 -0.30691037 -3.0104752 5.4791694 0.0528997 0.19392374 0.122915134
WY 2.0572305 -0.30554992 -1.2774798 -2.767458 -2.896297 1.2813437 -2.4585087 1.9431617 -0.31890845 1.2864158
HSIC 1.0109851 0.7637387 3.1452034 0.4650159 0.40220186 -2.7510526 3.6922007 0.5777182 1.3019992 -0.17334932
WU -1.1855665 -1.48447 -0.24296767 -1.8868289 2.0391774 -1.149162 1.9204772 -0.24538502 -0.3533156 -1.6338012
PCG 4.3179383 4.504785 3.5408647 1.1021489 -10.5758295 2.4947512 -1.3915937 -1.9127967 6.2557907 -7.486385
RTN 1.105283 0.5361322 1.749237 -2.3517535 1.0101596 -2.6328437 3.0815625 -0.05656171 0.3037869 0.16390327
QCOM -0.9675645 1.7664752 0.32067883 -1.7687492 1.0943567 -1.1957424 0.72712255 -0.9235909 0.28114423 0.24916005
AIG 0.20658281 -4.479668 -2.087804 -0.14884627 -1.3342171 0.5063538 5.9055114 -2.4191642 -3.6636543 -0.77208275
FFIV -2.1215835 2.4318593 -0.94269556 1.233545 0.94057846 -0.9155102 -0.28945658 0.39410132 -0.66371334 1.2017245
COP -1.4978025 -0.4350434 1.1823748 -3.7933185 -0.38260168 8.796445 -0.8963586 -6.009941 0.87885857 4.0954127
KSS -2.5591743 -4.2897353 0.38194817 0.6957382 0.9150487 4.761033 -6.118342 5.868203 0.9874085 0.2687218
GM -4.611454 -0.26088732 -4.7016587 -0.49745733 2.1908324 2.3371096 -1.4547037 -1.6294874 -1.9085625 -0.61744636
DISCK -2.2622108 -0.14664912 -1.5132223 0.16405751 0.65228754 2.803247 -3.3318274 1.7684159 1.8082598 -0.24893665
AVGO -4.3013515 5.0415974 -1.0873082 1.5057281 1.6389309 -1.6317267 -2.7393517 -0.17156506 -0.25200215 1.1237702
NTRS -2.3908944 -2.8826196 -4.991042 2.1634676 -1.0024705 0.61560225 4.6644797 -2.7793367 -4.329343 -2.8023584
GD 1.8147029 0.12920195 0.80527055 -4.364796 1.6477273 -4.7248507 6.8077283 -2.5456917 -1.2148709 -1.06331
XOM 2.9533794 -1.386726 2.8055496 -5.2038417 -1.9880542 2.537978 4.3649273 -4.997033 1.1659563 0.34304166
HSY 4.4462895 -1.5698253 4.649967 -3.095093 -2.270273 -0.58317703 2.9810545 1.0468353 2.9074247 -0.82310456
ADS -4.0658655 0.6553592 -1.1756831 0.877492 3.4737074 -0.57452184 0.21127646 -0.029518092 -1.5038414 0.7339613
VIAB -2.6337144 -0.63250333 -0.7688846 -0.33400968 1.3563716 3.2351496 -3.121296 1.4433169 0.4807787 0.6254294
FE 3.680969 6.603799 3.785399 1.3290207 -9.930638 4.307273 -4.7497745 -0.95545334 7.443641 -5.2061114
TRIP -3.811144 1.399736 -0.66785187 2.95196 1.0753211 1.944374 -4.0589604 2.644753 0.08792961 1.8403363
FITB -2.6066904 -5.6160626 -5.136524 4.3846316 -2.6663146 3.0746603 3.726507 -1.6711749 -4.6015773 -2.3654807
CF -5.69423 0.40403756 -2.2353222 2.0976708 -0.07802861 7.7737336 -7.3149614 0.89756 -0.17983347 3.7855904
LUV -3.3786354 0.8066055 -3.6023097 2.5992222 0.51899755 -0.82590806 -3.722875 3.848224 -0.6573753 -1.244176
CHK -5.534726 3.4288821 1.1218415 0.6312064 -0.0971374 12.250443 -11.119047 0.15495396 3.2525654 7.193322
MON 1.2695504 -0.8466989 1.488529 -3.6624625 0.09178666 -0.40502554 3.2686546 -2.0877564 0.843685 -0.11152564
EXPD 0.39687166 0.013644359 0.4803853 -2.282361 -0.115737766 -1.3106824 1.148112 -0.054980233 0.4783677 -0.9082104
VRTX -5.381556 4.4024873 0.5095313 6.342666 0.5515745 1.4695014 -4.9148655 2.2199728 1.394421 1.7748016
CME -1.7171562 -2.4164433 -1.5789831 2.048238 -1.0484512 0.54347104 2.934264 -1.3332509 -2.2863214 -2.114278
GIS 6.1307797 -2.282564 6.6990256 -4.322001 -2.7459207 -0.4294533 3.9127414 1.0041322 4.329868 -1.1085652
ADP 1.8226181 -0.3695419 2.0564375 -3.5579457 1.492067 -5.1014524 6.08812 -0.9640381 -0.17369244 -0.6712836
HCN 7.504686 0.12410308 -0.48508033 -0.82321215 -9.031066 -0.39360508 -3.0580006 6.9235315 -0.37949464 4.2387576
HON 1.3291308 -2.6542828 -0.6619231 -4.647597 0.53999203 -3.448763 7.3304696 -3.5909657 -1.70591 -2.4629283
AVY 1.1271422 0.20775975 -0.4990075 -3.107437 -0.101788774 -2.491939 3.027643 -1.0588464 -0.71732473 -0.75428593
BK -3.7989326 -6.2137756 -7.828657 2.2047603 0.07412538 0.72307867 7.3068595 -4.4358706 -7.195305 -3.3519363
TROW -1.1293067 -2.9718804 -2.9365525 -1.5583462 0.8244646 -0.72572863 4.026053 -1.7656285 -2.6351805 -1.7209929
OXY 0.093392745 -1.5477616 1.305543 -3.759215 -1.103558 6.0742955 0.7944385 -4.6599565 0.1756402 2.3441863
CI -0.38116223 0.5549656 1.9573715 3.4405384 -0.4845358 -0.6900721 1.6807444 1.3598602 0.091057256 2.0914245
APC -2.3811817 0.846477 0.5426556 -3.695605 -0.6389185 10.274752 -3.742174 -5.533367 0.5987078 6.3553586
SHW 0.9420396 -1.1403787 0.2724437 -2.4520683 0.50104177 -1.5069362 2.6541615 0.15824072 -0.5649476 -0.031010812
AMD -7.6695285 5.5383 -2.216122 4.5313816 2.1651876 2.7566788 -9.105771 3.1774867 0.041260514 4.4858503
WBA -0.93965214 -0.70753056 2.3936374 1.7015722 1.1055573 -0.4810675 -0.12761508 2.831775 0.9351082 0.5181856
CAG 3.0302904 -1.1874075 5.8148537 -2.140629 -1.0393595 0.81961566 1.4876153 1.162181 4.361204 -0.6391419
MAA 8.500611 -0.7298791 -0.77105904 -0.91952103 -8.850458 -1.9677474 -1.7198976 8.2423115 -1.8291997 4.089164
WMT 3.554808 -2.3026128 6.139399 -2.765124 -0.9106349 -0.9797201 2.3908656 1.6098173 3.783752 -0.9250988
TJX 0.84384114 -4.522598 3.2645416 -1.8690617 1.4218619 0.254731 0.29984397 3.7681966 1.324756 -1.0664622
COST 2.2382908 -4.181273 5.216078 -1.8393024 0.11511871 0.21183863 2.9833944 1.7332299 2.1944735 -1.6992892
LNC -5.459897 -4.334035 -8.450675 4.2093787 -1.0779711 3.69232 2.917463 -3.5875757 -5.6879816 -3.0356765
ACN 1.2242328 -0.40417776 1.0178012 -1.629042 0.4254873 -3.0196245 4.3634057 -0.3098323 0.24562912 -1.3210628
JNJ 3.9872785 -0.08110602 5.1536527 -1.1153344 -1.5548173 -3.274988 7.0742073 -0.7210124 1.8241777 -1.1608971
BDX 1.5699869 0.6178388 4.2725344 0.66810524 1.1246455 -5.1352396 6.2454095 0.6855731 0.7169196 0.018812248
MLM -3.2618368 1.4076251 -2.5788553 0.06091869 0.43165419 2.2301548 -3.5595047 0.18318771 -0.53287756 1.2159411
DOV -1.8647249 -0.65708417 -3.8665273 -6.928181 2.0524764 1.6100053 1.554408 -5.576192 -2.4150996 1.1421974
XEL 6.842833 6.594562 4.020068 -0.84596354 -13.328141 1.9370648 0.07431841 -4.139796 7.5326147 -9.361047
EXPE -2.1112719 3.0491333 -0.011063576 1.515472 0.81007844 -2.1204643 -2.4911802 2.772712 0.44418243 0.49490687
NDAQ -0.31591937 -0.091077685 0.2972524 0.53847045 -0.36729518 -1.2341844 1.1601253 0.8738798 -0.33545858 -0.7177965
USB -0.64529914 -7.22166 -4.3548946 1.0613595 -2.303007 1.5474355 8.627729 -4.5929174 -5.4664755 -3.2160995
CINF 2.7155645 -2.8935177 1.0167173 -2.016082 -1.1110911 -1.4349042 5.891539 -0.8417314 -0.5679872 -1.0182112
IPG 0.0077928817 -1.2792467 -0.7793259 -1.0522685 0.4304931 -0.48563644 0.7966838 1.6411923 -0.5979342 0.3245044
WM 6.365204 -1.9561676 5.904316 -5.8893156 -2.557648 -3.675936 6.731419 -1.2770627 2.8824027 -2.2486863
SWKS -5.0425158 4.636662 -2.0307894 1.618787 2.6256092 -1.1159728 -3.2030206 0.38537836 -0.5966461 1.0735075
V 2.6264906 -0.26776576 1.1856395 -3.2984903 1.8261094 -7.3592443 7.7327714 0.045221828 -1.5896728 -0.85527194
PHM -2.2339673 0.28265125 -4.328864 -0.5979134 0.726644 0.07981487 -5.1364985 4.1516137 -1.4001769 2.3396862
ADSK -3.487757 3.32116 -0.8751058 1.8800576 1.9716659 -1.9187447 -1.5130941 1.2020466 -0.5368017 0.9017717
D 10.479289 6.7127476 6.584874 -1.7881577 -17.52033 3.1759133 0.19947931 -4.3197923 10.017588 -10.540475
SNPS 0.45733824 0.30867624 0.5548872 -1.6319181 1.3685805 -4.079712 3.7400744 0.47674894 -0.73691404 -1.2586737
TAP 1.5138605 0.48480722 2.944819 -0.7684058 -0.8795274 -0.4876615 1.1091574 0.658131 1.9662815 0.4936195
BEN -2.5355475 -3.1017935 -4.253171 -0.9268427 0.9686128 1.5497891 1.5947297 -1.5525436 -2.8468769 -0.6444177
L 4.4199257 -6.28746 -1.4811062 -6.882698 -1.3872542 -2.1373055 12.759394 -6.5996456 -3.7972274 -3.374943
MOS -2.8446503 0.19955209 -0.9116511 -2.442777 0.32654646 5.4253745 -4.7121267 -1.0837939 1.120177 1.7089568
EBAY -2.337092 2.06149 0.576923 0.6788892 2.175498 -2.0207486 0.13980626 0.7192044 0.26579186 0.67280185
SYY 3.9647396 -2.8480506 3.798116 -3.0512874 -0.88263816 -2.094854 4.334813 1.4176655 1.5860022 -0.9565872
RE 5.6379724 -2.5243685 0.20302442 -0.8965291 -5.735709 -1.7927563 3.2784505 2.663813 -1.2152612 -0.16137552
CNP 3.4344888 3.3065605 0.9830779 -2.4516132 -7.296289 3.3756835 0.003033025 -4.0705905 3.1422436 -3.3982759
MRK 1.2649113 0.39178258 3.3373618 0.4286985 -0.8532372 -0.69594413 3.9243317 -1.0470711 1.424724 0.24214992
XYL -0.8216246 -0.0009309224 -1.7896122 -3.3454764 1.5997759 -1.0988772 2.4082696 -2.2223694 -1.1694071 0.32633835
ROK -1.6473874 0.009734528 -2.6011693 -5.673729 2.5760233 -0.29064348 1.1323657 -3.3630087 -0.73270637 -0.17578804
WHR -1.4921963 -0.06268388 -1.2532918 -0.24601556 0.8345259 -0.4934031 -2.2508354 2.7533717 -0.0017842001 0.28761023
MMM 3.1644006 -1.3242786 2.4970315 -5.627864 0.18748577 -4.877175 8.292006 -3.5250099 0.3001862 -2.461411
PBCT -1.1769819 -4.701897 -3.262962 1.2340716 -2.1919518 2.8077028 3.4302568 -2.1517699 -3.375533 -2.4518087
HOG -2.3549652 -0.639486 -1.2797678 -0.6969285 0.68560046 2.5131814 -1.1972086 -0.5650846 -1.0256686 0.73268384
A -3.2858174 1.7276157 -1.9958383 1.1927286 4.1395965 -4.9295616 3.628599 -0.6455878 -2.5981352 0.6573173
EMR -1.2483882 -1.1659025 -4.22752 -6.46183 1.0610362 0.8857114 2.597502 -5.5421295 -2.0468328 -1.1577164
NWL -0.18867601 -0.03955725 0.80074203 -2.0266395 1.1213163 -0.9598194 0.0753182 0.8722665 0.7899813 0.040800754
IVZ -3.0285728 -1.9427305 -4.778884 0.12649205 0.6058917 0.5872048 2.365583 -2.417598 -3.7939928 -1.5089496
VFC -0.14943647 -4.131198 1.5633774 -1.5917361 1.9272629 0.0486301 1.4613203 2.092731 0.5833408 -1.8429587
EL 4.712023 0.107887745 2.8407884 -3.235108 -3.4841876 -2.00493 5.3455253 -1.786489 2.1915874 -3.6019194
GLW -1.1111542 0.50584096 -2.4890716 -2.6168482 0.93228626 -1.4341608 2.0550227 -2.1806045 -1.702561 0.5033716
DHI -1.8770579 1.8961612 -2.9829526 0.71921027 0.98213947 0.6739053 -5.9549365 5.7349863 -0.33492333 2.173312
NEM -2.6537387 3.2663994 -1.1088175 1.5412605 -1.1837009 5.0055475 -7.466263 2.7700253 1.3525546 3.9841778
AEE 5.6098785 5.2097445 2.4869149 0.8120003 -12.982921 2.7171617 -0.79295033 -3.1211972 6.807072 -9.251116
RMD -0.069346294 2.5189226 2.6277087 1.5908297 0.95804024 -3.2778544 0.6802737 2.6052067 0.9662741 2.0857413
PG 8.396385 -3.0266857 6.7540627 -5.8878193 -2.7207556 -3.6731966 8.333753 0.31144524 2.3990781 -0.18680072
RHT -2.1363194 3.7693105 -0.59591335 1.1310823 2.1753445 -4.3262153 0.71731967 1.1926736 0.062128972 -0.35727254
RHI -1.9667155 0.8658499 -2.7314012 -1.200362 1.4755919 -1.3630418 0.37165552 -0.23785046 -1.2259197 -0.85656005
MAS -1.6316594 0.34117693 -3.1547115 -1.4798845 1.5763257 -2.144911 -3.3598502 3.9218788 -1.2650081 0.7914462
EFX 1.1034871 -0.2766986 1.6685855 -2.0554185 0.88996124 -2.9229298 3.2107074 0.40376303 0.20437118 0.29528946
DPS 5.1950803 -1.1679376 5.9242806 -3.4339688 -2.3945105 -1.126271 2.9015648 1.4581279 3.815456 -0.8242892
KSU -3.0644588 -1.0060611 -3.3754265 -1.4967114 1.7690275 1.251074 -1.7078801 -0.11399279 -1.3483584 0.61414784
NVDA -3.3018425 3.6174269 -1.3950181 1.2017531 1.1547744 -0.67606425 -2.6392393 1.064754 -0.30850598 -0.09760187
AES -0.13543619 2.8578377 -1.5419961 0.36448655 -6.041537 5.109359 -4.4894376 -1.5364735 2.2005527 -3.0090413
NFLX -5.17888 3.7229128 -0.107512474 3.4221244 2.9856055 0.9676114 -3.870469 1.7087041 0.7508226 2.6114016
AXP 0.62868404 -3.7679858 -2.6685393 -1.14452 -0.8298395 -1.6047698 5.870362 -1.8102294 -3.5939622 -0.4672034
SIG -3.090676 -2.6311963 -0.13943934 0.6852307 1.1084931 3.5785453 -4.6059604 3.7443779 0.6104661 0.48450527
MU -11.029398 7.1580467 -5.2227755 6.8992205 2.5093076 4.515542 -11.487049 1.9594053 -0.14961657 2.9401078
TDG 0.16950934 0.7857663 1.4358302 -0.93153495 1.3422459 -2.650875 -0.05992341 3.0848176 0.39828205 1.0430073
RF -7.534013 -7.9135275 -11.472557 6.686395 -1.4925706 6.9821296 2.7410853 -3.9226143 -9.172567 -2.202398
HIG -1.0951504 -3.6955655 -2.8539293 0.62843597 -0.10253501 -0.963697 5.026664 -1.2253773 -3.5964816 -1.7711713
FDX -0.30367348 -0.16951297 -0.5753148 -3.226754 1.207819 -2.4942386 2.4107213 -1.1651415 -0.7807612 -1.0052459
VZ 4.2534966 -1.633251 2.7030656 -3.093143 -2.9655108 -0.9929445 3.8422472 -0.13916376 1.86736 -3.1428385
IDXX -0.7430357 3.2233312 1.6945151 2.1717687 0.7487181 -2.9992445 0.7263968 1.9382312 0.5487126 1.2843096
PNC -1.936314 -6.5142493 -6.4144106 3.0888188 -3.042131 2.5333939 7.418758 -4.6841607 -5.49677 -4.1390758
T 7.401663 -3.680891 6.06118 -6.0004845 -3.985748 -0.38983 6.626031 -1.641406 3.396658 -2.5584352
C -7.346902 -9.129549 -10.219237 4.0465956 1.4049629 3.8159437 7.9259653 -6.443224 -9.588255 -3.602713
HUM -2.0816498 0.8924626 3.0032992 4.296791 1.8429124 -0.31228548 0.15697469 3.0659168 1.2295839 1.3469942
RJF -3.7884355 -5.287232 -6.9061923 2.3362718 -0.4122388 1.3034372 4.221356 -2.4391892 -6.049601 -2.5528653
PWR -3.734373 -0.1418108 -4.8978868 -2.9297574 1.1939813 2.7259622 -2.357653 -2.230721 -1.3665743 -0.18928479
MNST 0.45114625 1.2945081 2.2414596 1.3136691 -0.941329 -1.026909 -1.3777568 3.3349 1.9975024 0.27320263
SPGI -0.24162641 -0.07808593 -0.8770107 0.26597294 0.28480208 -2.485865 3.0537221 0.23216982 -1.7416375 0.5832464
JNPR -2.6724687 1.5498191 -0.3215982 0.4951231 1.8682182 -0.4448005 -0.14333095 -0.014333888 -0.20782366 -0.08128089
AAL -7.3712945 1.7375635 -3.569347 5.4017935 1.4954406 1.7750088 -7.8876243 4.2897706 -0.3046115 -0.068303704
BBY -5.095589 -1.6556635 -0.58925706 2.9031193 2.1007724 3.7097166 -5.689766 3.8617117 0.6836465 0.005345038
INTU -0.62731117 1.3924859 1.456253 -0.018279381 1.199959 -2.6926675 2.387892 0.033619076 0.48779908 -1.0802951
SRCL 1.7838119 -1.5648518 1.9999393 -1.8679657 -0.7254728 -0.5739682 0.4040837 2.328773 0.6899638 0.29577276
SCHW -4.9430904 -2.1315122 -4.7470803 3.459243 0.31013134 2.1129522 1.3223808 -2.0783985 -4.0372925 -0.40909684
MCHP -2.1096861 3.7721179 -1.515545 -0.621613 1.4201274 -2.45761 0.91711444 -1.3993558 -0.756702 -0.8518095
FLR -2.5375903 -0.5341655 -4.8779907 -4.6793265 0.5127077 3.4289405 -2.811579 -2.3120577 -2.0261393 0.753723
CL 8.889357 -3.4097466 8.039498 -6.691194 -2.3960574 -4.8757854 8.874794 0.77348506 3.1779265 -1.4699589
ILMN -4.3043866 4.288843 0.1167546 5.6335874 1.1160413 -0.41044128 -2.0172997 1.4858079 0.9037594 1.8849624
PVH -2.6488192 -2.384679 1.5946218 -0.18465088 3.0862672 1.9018563 -3.0288396 3.6343753 1.7669042 -0.26731685
FB -4.475139 6.7836866 0.69385177 4.685509 4.2896204 -5.228357 -2.120149 4.1920404 -0.22381571 2.7219207
M -4.4486117 -5.6001625 2.2428424 1.0946777 1.8520491 8.33135 -9.126095 6.4856644 3.7513804 -0.1909793
IRM 2.1123147 1.3833945 -0.1324301 -0.8043439 -2.3146672 -1.3154984 -1.8321301 3.8688004 0.17691554 1.6414789
VAR 0.5623043 -0.38631728 1.9478358 -0.63142735 1.3864053 -4.6128044 4.90601 0.22856699 -0.7007931 0.64050657
DAL -5.5124598 1.4821824 -4.3572373 4.569095 0.78264576 -0.9766764 -6.381045 5.1326933 -1.2221882 -0.77474886
BA -1.732216 -1.6351407 -0.71722656 0.25457427 2.462756 -2.697944 5.323077 -1.3618262 -1.9323299 -0.9843116
IT 0.51829624 0.9415904 0.92531395 -2.2501185 2.42467 -5.3413353 3.5929124 0.93192863 -0.4776268 -0.5193992
BAC -4.353929 -5.490607 -6.9057717 4.591358 -0.7664784 3.2154922 4.9079366 -2.9682746 -6.263135 -1.9321146
EXC 3.6264136 3.0235064 1.1980591 0.2897621 -9.097032 3.2325015 -3.928063 0.4799149 4.0315537 -3.0074756
ETR 4.696171 4.3821216 1.2346308 0.045847543 -9.954082 3.340034 -2.3209155 -0.95073193 4.8566413 -5.4686036
XRX -3.4395795 -0.37318358 -2.8187115 -1.2974347 2.3013985 0.98154354 -0.98464924 -0.7514927 -1.6543089 0.42836168
LEN -2.484177 -0.10635482 -4.199961 -0.86076415 1.111412 -0.14923905 -5.4138794 4.381457 -1.2830635 2.288849
LB -1.9211392 -4.1893654 1.8053063 -1.0289553 0.49905518 5.805196 -6.1484795 4.1039815 2.303624 0.6821628
KLAC -1.9074029 3.3905985 -0.68733084 -0.47165498 0.4637865 -1.678494 0.4636097 -1.6879002 0.1704467 -1.1446052
LUK -3.472443 -2.000274 -4.505541 0.77558726 -0.30560085 2.6506999 0.5173841 -2.3960211 -2.1288216 -1.4061228
ABBV -1.4458137 2.4262216 2.536622 3.861596 0.42559186 -0.781365 0.6451927 1.1716653 1.3191005 2.0013711
TRV 4.192169 -4.942463 2.495479 -3.1423473 -2.508218 -0.3723119 6.5938177 -1.0953519 -0.2704199 -1.8316175
PEG 5.4171586 4.412606 1.7541103 -0.7212433 -11.508909 3.0306175 -1.7825146 -2.0341573 4.8345304 -6.098946
CMS 4.53805 3.45373 2.5844064 1.2227715 -12.645348 3.7291663 -0.6734368 -3.654551 5.6244698 -9.576655
DRI 0.13758768 -1.411676 1.1274012 0.006158794 -1.1431848 1.195598 -1.0384474 2.0073655 1.0192512 -0.77995074
MYL -5.146766 2.9241369 0.9791726 5.198818 1.7943972 2.3923533 -3.825442 1.8208389 1.025612 3.1031168
SO 8.59025 5.3787303 5.7728534 -0.19457991 -14.522633 1.9750733 1.0495394 -2.8186126 8.016891 -9.979775
KMB 5.935094 -0.9177461 5.736425 -4.2247415 -2.7806926 -1.0547274 2.6515548 1.3054303 4.17849 0.013041155
AJG 1.9824486 -2.823017 -0.12452132 -2.7889676 -0.14320348 -2.6854815 6.345351 -1.388632 -1.297005 -2.183572
GRMN -1.5433304 0.78838176 -0.8278141 -0.67308384 0.17017013 0.38710144 -0.42528707 -0.7176524 0.070195645 -0.27214956
DFS -1.4006681 -5.798574 -3.6907437 -0.018740432 0.17609279 0.89349174 5.4290237 -2.2193682 -3.8740163 -1.842749
BBT -1.349781 -7.6446905 -4.4246044 3.593104 -3.0816371 2.996498 6.967876 -3.0458362 -5.204989 -3.76984
CLX 6.5203333 -0.81187683 7.400396 -3.4927433 -3.0145772 -1.512017 3.7049167 1.7333237 4.537583 -0.25006777
PAYX 2.028452 -0.77702487 2.8011045 -2.3781996 0.4008633 -3.1831312 4.3480196 0.33674398 0.18929425 -1.4784737
AFL 1.8956453 -3.964452 -1.1262057 -2.9141774 -0.7105156 -2.4857347 7.1328053 -2.0683835 -2.1360781 -2.1531785
ETN -1.3349288 0.09924054 -4.4808793 -5.5954666 1.5833944 -0.28008887 1.468263 -3.7128937 -1.6255809 -0.46049103
MKC 4.521736 -1.739459 5.5077505 -3.4984932 -1.1592969 -1.6036917 4.736663 0.24172811 3.5048535 -0.8146512
CSCO -0.2856879 -0.10881886 0.6553365 -2.539114 2.1312578 -2.5086293 2.7272584 -0.33532363 -0.22510661 -1.1462914
NRG -1.7487499 3.9078426 0.20889863 1.3160142 -3.2424376 6.1465583 -7.3546915 1.2062433 3.1626508 2.141757
ANSS -0.5397597 1.5395619 -0.4553136 -0.5551388 1.4945687 -3.5888655 1.9085437 1.1093307 -0.9002268 -0.42053393
UAA -5.822923 -0.754004 -0.023882521 4.2618337 3.1190288 2.4827056 -7.1326513 6.3990083 1.2009888 0.42485556
NI 6.6209307 5.8975153 3.458267 -0.5069927 -11.826354 1.0519793 -1.4877687 -1.0926362 6.340048 -6.785778
KORS -4.180542 -1.132628 -0.31383562 1.1373552 2.3362784 2.2845201 -4.2699785 2.7843897 0.092951864 0.19648571
K 10.230345 -3.6310146 9.2607975 -6.7472982 -5.166978 -0.7796247 4.599733 2.0087624 5.694654 -1.6239355
TIF -2.5490234 -2.1024947 0.12593275 -1.33165 2.7101173 1.2837698 -0.8132707 0.84996986 0.4524259 -1.0362362
UTX 1.0147518 -0.7983917 -0.47242355 -5.5058937 1.004039 -2.71554 4.554391 -2.9949481 -0.523032 -1.3407449
BRK.B 1.4987366 -2.072424 -0.20173374 -1.7135686 -1.0974479 -0.93582803 5.745667 -2.2211845 -1.1507744 -2.361901
DLR 5.258243 1.701135 0.4708183 -0.23122515 -6.6807656 0.43623856 -3.7445986 6.066137 0.70556724 2.922355
F -3.953336 -4.5726666 -4.808849 -2.6620479 3.347131 1.8083239 1.9009486 -2.6678011 -3.4922428 -1.4247583
GE 0.66108716 -2.9569776 -0.22901107 -3.570451 -0.04372614 -0.06795716 4.6630363 -3.1290061 -0.7296982 -1.5211136
HP -6.555147 2.907372 -2.157342 -1.4715655 0.10815492 12.462769 -8.467099 -4.8065147 0.35769552 4.8803205
ARE 8.3982725 -0.72321576 -0.76409596 -1.4290552 -8.792795 -1.2345955 -1.0016187 6.7365494 -1.4200107 3.478666
DVA 1.2120136 -0.9836551 2.6436005 -0.1485441 -0.22875965 -0.16411792 1.4237651 1.7893581 0.41044378 1.5925719
MDLZ 1.6563953 0.23094068 3.5533514 -1.3770589 -0.42181396 -0.4451098 1.4157776 0.7016812 2.488941 0.36662266
KMI -0.84179944 0.9525263 -0.16827972 -2.2323472 -2.067324 5.38363 -3.0768356 -2.6027424 1.9288753 1.3038296
CTSH -1.6887043 1.3554467 -0.20377761 -0.43414858 1.5673691 -2.2745538 0.8295637 0.15939365 -0.35854933 -0.49171793
CRM -3.0822566 5.074936 0.32504848 2.9246542 2.8210373 -4.064864 -1.9037637 3.4145527 -0.1243819 2.2753823
FCX -5.002479 2.7945225 -2.2937007 -0.88909644 0.1300549 8.514576 -8.828791 -0.626338 1.1913016 4.810089
ADM -0.66297156 -0.0038574764 0.37490198 -1.4857008 0.127782 0.9085679 0.32346508 -0.9694397 0.6979056 0.20664558
PFE 1.7849004 0.47553587 3.6921144 1.0153029 -0.6987944 -2.4362102 4.213944 0.49414366 1.270195 -0.022604942
CTAS 1.7294254 -0.5770748 0.4500766 -3.1816492 -0.3792116 -3.0241508 2.9688773 -0.009741566 0.18955727 -1.1084743
AMG -4.2953897 -0.196921 -3.9413488 1.5582868 2.5013144 -1.3043419 1.9607689 -1.3094147 -3.6157782 0.56150424
EQT -1.7150193 1.8532851 1.2022787 0.043190308 -1.8105972 6.763767 -5.384421 -0.5875612 1.2954952 4.5995336
CCL -0.40719047 -1.1854515 0.9081611 0.18673141 1.3343025 -2.187945 1.5744554 2.1025689 0.014348047 -0.24804792
DGX 0.6675773 -0.5086264 3.9901173 0.48167405 1.523794 -3.1916556 3.6218727 1.6454269 1.0172837 0.58487463
AKAM -2.370678 1.8821133 -1.3154815 1.7885731 1.2697898 -1.4288125 -0.13586217 1.34465 -1.2817369 0.7095241
NEE 6.6223025 5.455924 3.350182 -0.87623054 -11.839853 1.0263591 0.2579256 -2.6795921 6.7071137 -8.065263
GT -6.284503 0.50329703 -3.773452 1.7611502 2.6264002 3.090817 -6.0234923 1.7038541 -0.721199 0.49422443
PEP 6.0731997 0.064055815 6.764398 -3.5422702 -4.159785 -1.724471 5.3863015 -1.2166302 3.7474422 -2.640547
GPS -2.5184548 -3.5631943 2.1778612 -0.41510433 1.650191 4.3236156 -4.9273334 3.8910248 3.0765567 -1.0220172
HCA -2.6413562 1.2350439 -0.10402371 3.703628 0.3933397 0.189697 -1.9929237 2.4813175 -0.015350103 2.2067401
KO 6.462822 -1.2952616 6.7962317 -6.2468977 -1.9915805 -2.4669871 6.43633 -1.321165 4.0593576 -1.9537966
NFX -5.387153 2.806741 -0.0073928493 0.56944174 0.5709359 9.328208 -7.6099405 -1.5682117 0.82055855 7.6338134
COF -3.647792 -6.308705 -4.657843 1.4173529 0.8823325 3.4067073 5.177053 -3.5701015 -4.680276 -1.7344123
PDCO 0.9589026 -1.1992768 3.9388795 0.35036448 0.13012214 -0.4458307 1.9209384 1.6882519 1.4652759 0.17995018
BF.B 2.3002899 -0.8025564 2.5954754 -0.74814737 -2.0612185 -0.09932747 1.8509285 0.74686056 1.8493648 -0.13043314
LEG 1.9801486 -1.8572553 -0.8545894 -3.6354957 -1.1135074 -1.5978159 0.8217078 1.3730894 -0.4666581 -0.7918952
MET -4.045189 -5.5382075 -6.718781 3.1628299 -0.55131423 3.0353734 5.197879 -3.8385866 -6.053481 -2.4662175
SWK 0.78323746 -0.7017887 -1.7684726 -5.2660456 1.1098502 -3.0519092 5.117869 -3.0254874 -1.547002 -2.199835
NLSN -0.32599333 -0.9094799 0.79466814 -1.0693628 0.38835657 0.014190999 0.21129352 0.94367164 0.51347196 -0.073762886
HRS -0.48694068 -0.13818738 0.5748783 -1.9673537 1.2109538 -2.669681 3.9085066 -1.9509785 -0.35838628 -1.9752827
SCG 4.33889 5.2124305 2.9599957 2.1784556 -12.210958 3.3503253 -2.5605185 -1.9385732 6.4326315 -7.161923
MCO -0.020494666 -0.5136227 0.061569214 -0.23110053 0.48766786 -2.8898451 3.571101 0.17439988 -1.0695062 -1.8203914
SNI -0.37055397 -0.51500446 -0.34086066 -2.862095 0.117838316 1.0707265 -0.91332084 0.056418102 0.7551951 -1.1574105
PRGO -2.325108 2.122599 1.7651305 4.268919 -0.30590448 -0.04110454 -2.1048453 2.5792322 1.7638303 0.7405571
CSX -2.8386414 0.33677906 -3.012378 -2.2649167 2.150873 0.9952316 -0.5330157 -1.6022774 -1.1550068 0.5238656
MA 1.8366597 -0.6857074 -1.5343807 -0.5348854 -0.24382317 -5.7823615 4.59539 1.7061888 -2.7058578 -0.3653155
ISRG -1.1622798 2.5561638 2.3306315 2.2525861 1.1481516 -2.078818 1.0918553 1.3642098 0.35584173 2.0167387
DISH -2.4290915 0.6328531 -1.0579202 0.8629294 1.3743666 0.81607443 -2.4722402 2.2690992 0.4688237 0.4954296
VNO 7.326308 -2.513273 -2.1452746 -1.7639955 -7.885548 1.2750295 -0.9611248 5.610704 -3.160649 4.27304
WAT 0.46265692 1.7325283 1.4155314 -1.5121781 1.4777039 -4.4805665 4.7841964 -0.9812604 -0.35158053 -0.33691248
NBL -3.011412 2.122283 0.021160383 -1.9049721 -1.3993818 10.053029 -5.0171676 -4.6031356 0.32377964 5.900898
VLO -3.4030385 2.2100105 -1.6690089 2.5991254 0.41797128 3.0061297 -3.7288377 0.99344915 -0.0037717994 3.0244653
COO -0.94493765 1.521492 2.274653 2.336961 1.0570877 -1.4489988 1.1859655 1.6946294 0.67243856 1.5470448
PSA 7.692969 -1.085452 0.71335465 -1.1046307 -8.033676 -1.6046087 -1.3662072 7.0435996 -0.65752524 4.2700715
MRO -4.2157226 2.2585208 -0.09625024 -1.4589537 -0.97581244 11.028762 -6.6348825 -3.8501174 0.4728567 6.373001
CMG -3.5920067 -1.1519824 0.61418056 2.4070945 1.398079 1.670149 -2.602909 2.429396 0.7170292 -0.25761214
NCLH -3.0375903 0.002431073 -0.27818123 1.9966258 1.5854111 0.4049722 -2.5595586 2.960874 0.37081754 0.67208797
AYI -2.19892 0.54930115 -1.8440052 -0.43895727 0.75207967 1.1638527 -3.1085155 1.657398 -0.0050561368 1.0486228
FAST -0.9200215 -1.7106732 -1.2204888 -2.3906226 0.47660682 0.3127989 -0.9043087 0.7189636 0.09314318 -0.32313225
ECL 1.704249 -1.1612036 1.0489388 -3.913205 0.5933315 -2.5362737 5.0622625 -1.705637 -0.56211567 -0.74463123
CB 4.0050635 -5.017432 0.6818063 -2.6030607 -2.2272606 -2.4021378 9.368427 -2.0893443 -1.9778901 -3.5010629
HII -1.816234 0.8819303 -1.2822015 0.058029536 1.2290968 -1.3799299 1.2028227 -0.4929857 -1.082832 -0.1351855
CELG -3.2426445 3.6241205 0.91323185 5.733594 0.47832677 -1.3749007 -1.2095186 1.9551052 0.7956959 2.4744356
STI -3.997844 -6.8501043 -6.751199 4.3467956 -1.5352833 3.7652435 6.088937 -4.247593 -6.291639 -2.4726872
APH 0.70289934 2.2864172 -0.30095577 -5.016765 1.1974075 -3.0491023 4.8626184 -4.370299 -0.6637355 -0.2703653
ITW 1.2614158 -1.0173131 -1.4440485 -7.900177 2.4266753 -3.5911534 6.2776017 -4.1090856 -1.7558429 -1.3702885
CBG -0.84674495 -0.1296164 -2.3834474 1.2113682 -0.92737675 0.29461473 -0.82181937 1.870266 -1.5035082 0.068158224
TXT -3.2306087 0.34819365 -4.459382 -3.9429684 3.238806 -1.0860915 0.63951254 -2.6160696 -2.2135446 -0.38115835
FTI -2.8420672 0.36916596 -1.2275969 -1.5899917 -1.0155098 7.259754 -2.8399389 -4.008266 -0.36830038 3.6515672
DG -0.1709259 -3.963929 4.1532125 0.08558236 1.5826895 -0.07142523 -1.7332277 5.84871 2.4155934 0.30624872
JBHT -1.6639576 -0.041920032 -0.42766896 -1.5167248 1.5643481 0.12805687 -0.092334345 -0.10046036 0.5567591 -1.143479
RCL -2.0188391 0.47495863 -0.5850678 1.2078277 0.86422306 -0.4575792 -2.3419914 3.0526803 -0.3050466 0.010398933
VTR 7.0602765 -0.03712145 -0.13397966 -0.5931827 -8.001673 0.8116497 -3.508247 7.4777513 -0.33760092 3.6723247
PSX -1.6491424 0.822643 -1.9655515 0.3057089 -0.651532 2.2453663 -0.696485 -1.3751228 -1.0243207 2.461552
HBI -3.3911965 -3.0714443 0.7849812 1.2914684 2.9130385 1.9091109 -2.6177962 3.659495 0.6863782 -0.41245142
EW -2.152568 3.5349078 3.1737373 5.241717 1.9910097 -3.0690384 -0.1362217 3.9390278 1.4826782 2.0734985
CBS -2.872681 -0.6464411 -1.049984 0.10906249 1.727588 1.9472212 -1.2550212 0.49633434 -0.3460552 0.015640855
PGR 3.7527578 -2.9957395 2.6098866 -3.1657574 -1.4178159 -2.117174 6.584088 -1.044786 0.31013888 -1.9401022
TSCO -2.3567846 -2.487246 1.4482596 0.43817866 2.8188658 0.47128028 -1.0336392 3.085618 0.59677833 -0.76382214
UNH -0.46266192 0.5853558 2.4620197 2.7795453 0.70871514 -3.1649325 4.6587677 0.30612496 -0.2554153 -0.19279559
ALGN -3.4561622 3.2740965 0.8609222 3.806923 1.8204713 -1.7560318 -1.5179435 2.1356483 0.65819603 1.4027404
HES -2.8932705 1.189439 -0.75940466 -2.5098302 -2.5589695 10.657373 -5.5247455 -4.747638 0.4243136 4.2550116
VMC -3.0263674 0.13398549 -2.8694055 -1.0569414 0.8508195 1.3540376 -2.5124435 -0.1822354 -0.8587059 0.8367553
MS -6.3275437 -4.5750833 -8.331759 4.670074 -0.35202622 3.6035833 3.6796644 -4.454308 -6.477299 -3.3813326
ZBH -0.110558905 0.7215634 2.594584 1.4824194 0.82383436 -2.0077353 4.0719643 -0.22768043 0.397181 0.4799812
PCLN -2.140585 1.642541 0.21886252 1.0249507 1.5869714 -2.1229913 1.4388572 -0.080064155 -0.3197393 -0.6680515
FBHS -1.6365294 1.5951991 -1.7494445 -0.41227636 1.7002628 -1.5309849 -1.7637645 2.571004 -0.32114965 0.39314783
SPG 8.446321 -2.6469777 0.4686367 -2.0222476 -7.930803 0.35411182 -1.1132277 7.0813737 -1.4628383 4.8630285
SLB 0.14338414 -0.35914707 0.85781306 -4.7926407 -1.6472422 6.3422656 -1.222106 -4.539716 0.57753 2.7560103
DRE 7.876191 -0.15850891 -0.80765545 -1.214244 -8.516875 -1.6562454 -0.86588115 6.359726 -1.5871354 2.8923612
TEL 0.17590101 1.3353193 -1.6686 -2.949885 0.68142945 -3.5536292 4.1721187 -2.3992717 -0.89934796 -2.6813748
NOV -2.8451405 1.0055375 -1.0377954 -3.5521982 -0.17183152 8.474721 -3.4945407 -4.8248987 0.4743307 3.5656111
URI -6.6050715 1.7943949 -5.414866 -0.33131054 2.5977993 4.2701364 -6.190828 -0.58995694 -1.5459131 2.7378807
MAR 0.40362617 -1.3774892 -0.43031564 -2.1630032 0.5711124 -2.198569 0.59225607 1.988555 -0.59378713 -0.044942837
FIS 2.4549904 -0.87411016 1.3380432 -2.5381699 0.072787166 -4.642199 6.075544 -0.30623293 -0.57093656 -1.9641266
EMN -3.457391 0.030581133 -3.3248448 -2.572185 2.1022334 1.7459892 1.0606649 -4.461672 -1.6057407 0.6120128
AMGN -2.3981757 2.9812715 2.065242 4.5416803 1.2352031 -2.8241193 1.365842 1.103651 0.56216 1.6984344
MHK -0.19662182 1.6251003 -0.5874845 -2.0874302 1.7703705 -1.8934278 -1.4013758 2.664429 0.27603135 1.1749514
HRB -2.5699883 -0.5339603 1.8984663 2.009843 1.4878216 0.909986 -2.2765076 2.9128525 1.8160403 -0.043414466
MPC -3.7543395 1.8017014 -2.3598847 0.88003606 0.1620262 4.916318 -5.6951127 0.76772505 -0.3204973 4.173691
STX -5.206916 1.6621859 -3.366485 2.6391072 0.56000286 3.3881567 -4.598777 0.2363574 -0.547835 1.2156289
MAT -1.4293611 0.92282486 -0.1158132 -3.110937 0.5612597 2.204507 -4.7335386 1.4692203 1.7475904 0.6913977
EA -4.53401 5.649511 0.77580166 5.008012 2.7781637 -3.5867014 -2.5253055 3.2059243 1.2160516 1.1143217
FLIR -1.4113587 0.21868445 -1.2278881 -1.6777614 1.1871095 -0.48908034 0.79308665 -0.88082606 -0.16927649 -1.1486808
BWA -4.8640246 0.38419175 -3.2150586 -1.827645 2.9837031 1.8084847 -3.5867565 -0.52090216 -0.13130638 -0.09539538
TXN -2.383699 3.7826686 -1.7480909 -0.96469396 1.998106 -3.9516232 2.5681214 -2.7839587 -1.1608013 -0.9650442
LKQ -1.8012832 -0.41292316 -1.0261847 -0.2898013 0.863654 -0.31940407 -0.6954118 0.9049308 -0.37274694 -0.6737122
ADBE -1.3205513 3.5251825 0.56130916 0.5350955 1.7099892 -3.9273071 1.5471622 0.42354286 -0.19286843 0.078802645
ADI -3.638342 3.993858 -1.4911013 -0.42160082 3.3686965 -3.0926309 0.91789085 -1.6035254 -1.1557019 0.14201894
EQIX 0.6049052 3.341784 -0.37488565 1.5005778 -2.3494036 -2.0689185 -1.5358151 2.8082323 -0.2688732 1.2931854
ZTS -0.91127545 1.9949055 1.7615527 2.898372 0.55116284 -2.7475724 1.8079177 1.3603941 0.5368207 1.197243
EOG -2.2604353 0.6919549 1.793604 -3.3732123 0.16096504 9.846555 -2.6665914 -5.5477767 0.7479841 6.146737
XLNX -2.0232294 3.7912133 -1.5228572 -0.6642661 1.1334057 -2.075586 1.2299834 -2.203639 -0.23566213 -0.48774126
WYNN -3.7420847 1.9655455 -0.71105427 0.8512772 1.2819488 1.9952625 -4.2729297 1.1986299 -0.052539174 1.9519039
IR -1.5459054 -0.21633708 -3.2823067 -5.988541 3.3512578 -1.8806474 2.0507565 -3.0639367 -1.8131989 -0.32664338
YUM 1.1079767 -1.3845752 1.5618197 -1.8288895 0.69469863 -2.279303 3.5771453 0.43376637 0.10390593 -0.41066137
HAS -0.034571648 -0.90009314 1.3077618 -2.1401525 1.3577887 -1.1218835 0.02679835 1.7427738 1.0452675 -0.28606346
CXO -4.204397 3.410814 0.5255562 -0.9664339 0.26565218 9.179415 -5.755695 -3.6970868 0.6677021 6.407205
SNA 0.5798035 -2.0899067 -1.6293222 -5.510826 1.4605005 -1.7171221 2.9389157 -1.3443245 -0.6957956 -2.2690651
ANDV -3.9754417 3.0073156 -1.5776169 2.858714 0.047059 2.705613 -4.3867855 1.0137821 -0.052787077 2.140595
PXD -4.0011516 1.0147706 0.824169 -0.9960981 0.051749032 11.07598 -5.3985887 -3.847606 0.6105517 6.657542
MGM -5.397959 3.487993 -2.759779 4.1163726 2.111953 0.8042131 -3.3466146 1.3737793 -1.0476795 2.1883216
DLTR -0.40704787 -2.2969606 2.3142486 0.26457274 0.35110047 1.6232219 -1.5073181 3.2931101 1.3394005 -0.58709043
AIV 8.249529 0.3498597 -1.1859722 -0.8137058 -8.673314 -1.7283919 -1.1458453 6.9660425 -1.8596927 4.738064
INCY -5.6157384 3.8235314 -0.3097076 6.3558683 2.1048238 1.8991746 -5.727209 4.3824797 0.9940841 4.3363624
CHD 4.942382 -1.7031163 6.086221 -3.9594734 -1.4591818 -1.8195133 2.8523488 1.9975855 3.4692852 0.0752824
AMT 3.6929975 0.862227 0.96934414 -1.6844376 -3.1415172 -2.3596966 0.7062677 2.6941478 -0.51760995 1.740627
CNC -4.5456657 2.5749924 0.06203883 6.331676 -0.22741859 1.8308405 -3.292906 1.6981198 0.67664325 1.4221736
UNM -2.799275 -4.9574876 -5.844994 1.6031734 -0.81626004 1.4619722 5.921329 -4.1417713 -5.497562 -2.5009677
ALK -4.176523 1.3281956 -2.4919765 4.461055 0.41967443 -1.0110477 -4.3623705 4.4364014 -0.50864774 -0.299372
ALB -2.5415359 2.1697595 -0.8164433 -1.4322385 1.3879843 0.46893153 -0.75041246 -1.8294517 0.3131737 0.5461117
CDNS -1.426812 2.787623 0.32068887 -0.08431166 1.4734261 -3.2659285 1.1130465 0.15302591 -0.49988955 0.41746044
GILD -2.2378407 1.996586 1.1608056 4.1208687 1.3737141 -1.5351913 0.4850156 1.9864315 0.33514565 2.1430483
HST 1.7055873 -1.8141476 -1.255617 -1.8727006 -2.5179145 1.9486474 -2.4672768 3.1851444 -0.33164948 2.2158377
CTXS -1.9031434 2.656058 -0.050533213 -0.2737161 2.1883976 -3.7024245 0.7338062 0.4286792 -0.8151371 0.8430167
AZO 0.14634185 -2.2011578 3.2307594 0.5887395 0.08113031 1.2629772 -0.54367703 3.1615539 2.1957257 -1.8175242
JWN -2.1689107 -5.740502 2.0361311 -0.39482543 2.271746 3.6182227 -3.4692307 4.983802 1.9107081 -1.0849502
AMAT -4.3508024 4.3079114 -2.1752424 -0.30263874 2.681419 -0.88379216 -1.496347 -1.5368072 -0.52495295 -0.39719838
FLS -4.5914316 -1.2684917 -4.3146925 -4.773162 2.791588 3.6476958 -2.4381127 -3.5106826 -1.1761907 -0.0044927425
CERN -0.83579725 2.6196828 1.7856339 2.630849 1.4231464 -3.068371 1.678611 2.1105907 0.84082603 0.9690365
CPB 4.8141136 -2.1401143 5.461922 -2.7135353 -3.663883 1.2994798 0.73332304 1.8519686 4.686328 -1.0378925
HOLX -1.4773113 1.8163716 0.4947572 2.2862825 1.1213167 -1.923827 0.5947696 1.9099983 -0.1986175 1.2312922
KIM 7.739306 -2.337894 -0.15979564 -1.9716194 -8.4512205 2.1440618 -4.16634 8.195073 -0.7780792 4.7798934
OMC 0.96673316 -2.2982748 1.1798723 -3.1776886 0.8675043 -1.262171 3.2359834 -0.11450335 -0.035790257 -1.4927055
SYMC -0.7430124 1.0571617 1.6417042 0.7794781 0.6359739 -0.73973256 0.34096134 1.1821055 1.1060467 0.12995622
WDC -5.6684756 2.0951793 -2.5345562 2.2146218 2.061484 1.9243904 -3.7912548 0.3398084 -0.9704233 1.6219794
AET -1.3255434 1.3945558 1.3404056 5.72675 -0.9464603 -0.108106576 1.0196829 2.0083776 0.5827765 -0.42526248
DVN -2.6273425 1.8591223 0.55838835 -3.3586867 -1.057815 11.051786 -4.835343 -5.02971 0.9364378 5.9903216
UHS -2.5704906 1.7333673 0.16323738 3.608725 0.9224904 -0.06361038 -1.0568483 1.9995425 0.38076192 1.5115653
UAL -7.410848 2.3083203 -3.9669976 6.263927 2.0867035 -0.1033426 -8.344698 5.910842 0.7566374 0.12636623
ATVI -2.2262056 3.2126367 0.2646209 2.870053 0.7922398 -2.2433732 -1.3580528 2.5921106 -0.32034484 0.6598143
HAL -4.163735 1.3926004 -1.471056 -2.0065687 0.7770609 6.852706 -3.1377246 -4.630653 0.024689743 3.5182574
AVB 8.444451 -0.23222797 -1.1659889 -1.4557284 -9.111926 -2.0416324 -0.65461177 6.607531 -2.9307363 4.3913546
SBUX 0.850474 -0.7988029 1.9671814 -0.39360657 0.87693113 -2.3964891 2.1346 2.364475 0.13982451 0.044982765
LMT 2.4330852 0.33807468 2.7458496 -3.6707401 0.82066983 -3.8614955 4.4587355 -0.21630703 0.60834354 -0.2522619
BIIB -3.7473564 2.8310354 0.7999637 5.3945174 1.3857044 -0.71748954 -1.5322016 2.3468142 0.2784152 2.729348
LLL 2.1794066 -0.48649755 1.8416704 -3.5397992 -0.53753585 -1.731905 4.618491 -2.1107228 0.66418153 -1.4204502
GS -3.960217 -5.5244207 -7.3659573 1.6161623 0.13794236 1.7933483 5.748905 -4.2753286 -6.8623376 -1.3436757
IFF 2.3316426 -0.6730114 0.87410694 -3.2833507 -1.10707 -2.1077464 4.3821836 -1.5734842 0.14429975 -1.6650171
WFC -0.30957535 -6.5253577 -4.4182043 0.93052673 -1.8591588 1.2628257 7.251256 -2.9566703 -5.110211 -2.9391255
EXR 6.5974193 -0.07371003 -0.29260752 -1.1948372 -7.473148 0.0024907333 -3.6785684 7.2196198 -0.9876668 4.027081
UDR 7.969642 -1.2899333 -1.2459403 -0.350792 -8.423842 -1.7352062 -1.6879727 8.411875 -2.8011365 6.3971877
MDT 1.1315562 0.09541849 4.19515 0.3468015 1.4088284 -2.9842362 5.260273 0.42173466 0.8847497 0.6516723
KMX -3.137569 -0.7017188 -1.8130525 -1.4115932 2.1705441 1.1039433 -1.9725446 0.4033424 -0.03364895 -0.9282535
HCP 7.8715515 -0.42949122 0.33428642 -0.9259367 -9.195016 1.0629117 -3.9605937 7.4808507 -0.5446654 5.6613073
MCK -0.7766322 0.81611645 2.8820102 3.4670162 0.33666095 -0.6160923 1.5550972 1.6364543 1.5247991 0.47427338
CA -2.0046659 0.60719395 1.3895638 -1.9198489 4.3434615 -2.8862987 2.5343814 -0.66615397 0.44390693 -0.73220116
UNP -0.5147122 -1.1900427 -2.533873 -3.2353034 -0.5661307 0.57460344 2.6755846 -3.6025136 -1.8761804 -1.2586668
SYK 2.7992377 0.7432274 5.0325704 0.41001812 -0.2507532 -4.4975257 5.1840644 1.3567774 1.6460859 0.5411173
BAX 0.69628906 0.36729664 2.480971 1.1591765 0.6335539 -3.3435159 5.5073724 -0.0452598 0.27448452 -0.6186514
ROP 0.21862057 -0.844464 -0.36389127 -5.250018 2.4651008 -2.3890471 5.459643 -3.6152575 -0.97695875 -0.88559234
ALXN -5.6812944 4.0685167 0.5811544 6.8156433 2.0287447 0.74577445 -3.7456727 2.6048124 1.2750449 3.021701
AOS -1.8173106 -0.29852816 -1.8504668 -2.969908 2.564932 -2.4588869 0.58203727 0.07003246 -1.6264364 -0.4395741
CHRW 0.69209445 -0.7427372 1.1467429 -1.7022377 -0.72764707 0.69213706 0.7972345 -0.10420143 0.6717305 0.3265064
CVX 1.215499 -1.5610052 1.3698362 -5.101784 -1.4778193 5.1595116 2.8160133 -6.0812593 0.0952397 1.5193108
APA -3.4619102 1.3252844 0.1402477 -1.920638 -0.111485735 9.824034 -4.305313 -4.457764 0.24377735 6.474528
JPM -1.9993384 -6.525345 -4.800214 2.3610425 -1.5458344 1.898406 7.4605746 -4.111831 -5.5358005 -2.848655
CAH 0.29374334 -0.6306333 3.1880896 2.173333 0.20454969 -1.3810493 3.5336041 0.74438775 1.091422 0.3624963
BLK -1.7821481 -2.2602174 -4.72642 -1.0287532 1.0953721 -2.004813 4.551579 -2.3103917 -3.7828846 -0.79948944
PPG 1.3360643 -0.80347204 -0.40846124 -3.4870708 -0.02221775 -1.9177227 3.2025588 -1.1969029 -0.25462902 -0.23966572
ESS 7.7739453 0.5367675 -0.1306858 0.9390092 -8.813138 -1.5742213 -1.2695081 7.6944146 -1.5241412 3.4357417
PH -2.3237624 -0.9052696 -5.829198 -7.260078 3.1493196 -1.2447304 2.6832647 -5.0545583 -3.3811905 -0.81941974
MTB -2.0126758 -6.890625 -5.270803 1.8738719 -2.369455 2.868588 6.480757 -4.443133 -4.7254524 -3.9757905
INTC -0.36193028 2.232656 0.9434147 -0.98801863 0.25113118 -1.8531785 1.7829708 -1.3199909 0.3612547 -0.58956856
ROST -0.48928973 -4.9723697 3.3547697 -1.5208672 1.8370677 1.1130832 -0.56399006 3.2068825 1.879509 -1.511687
WMB -1.5048105 1.2006099 1.1103584 -0.8135999 -1.9574276 6.304479 -4.1726 -1.6984512 2.1217866 3.2670476
NTAP -2.8695025 1.6892867 -0.838149 -0.04757563 1.2609258 0.7541246 -1.0950656 -1.0416012 -0.11092474 1.349773
ANTM -1.0662615 1.2215137 1.9682921 3.590091 0.68850607 -0.97368205 2.265824 1.1721026 0.3028351 1.0258211
LH 1.1130981 -0.5990852 4.547186 1.9679644 1.6888592 -3.896988 4.104409 3.2218275 1.2231175 1.3317876
VRSK 1.2788398 -0.684797 1.1725215 -0.99971354 -0.4190973 -2.27724 3.1448183 0.50164473 -0.36574507 -1.0667449
ZION -4.4468665 -5.146328 -5.952406 4.4135647 -1.5772095 4.4946513 2.0822601 -2.1858776 -5.0581675 -1.1059163
FL -2.5647488 -4.0378838 0.15593573 -0.98598576 1.8641856 3.0497549 -3.7217278 3.5607924 1.2602965 -1.147727
CTL 0.97521156 -0.6205403 1.7134298 -1.8588747 -2.4417655 3.6314719 -3.4418445 1.6038339 1.9395725 1.1374209
RL -1.9202126 -3.2747283 2.3137984 -2.1226068 2.0125628 4.20632 -3.7134807 2.2228913 2.4363127 0.09489421
FISV 1.5153797 0.07117954 1.5426033 -1.0804777 -0.36107484 -3.5527308 4.331651 -0.15442246 -0.29927066 -0.97931886
CHTR -0.9901984 0.4074755 0.84252983 1.4426587 0.14188957 0.97866863 -2.4540765 3.4262083 0.83052486 1.0557078
COL 1.3684989 -0.5464614 1.2329103 -2.6284034 0.19427457 -1.6145736 4.8981214 -2.1752872 -0.26929697 -1.0291874
WYN -1.6518024 -0.73630893 -0.35166475 -1.2507559 1.6701972 -0.9719694 0.72781056 -0.1266525 -0.54899925 -1.0567861
AWK 6.03272 2.6506972 2.3760154 -1.5597154 -9.183313 1.3971134 0.36018303 -0.96784866 4.095238 -4.739187
XRAY 0.068612605 0.1298211 1.3309306 -0.20783052 0.97924715 -1.7066616 2.7160861 0.35033777 0.42673692 -0.2097488
TPR -2.1829433 -2.326673 0.71978635 -1.3421549 1.7379586 1.796506 -2.6851628 2.122336 1.3088559 -1.8103437
TGT 0.001534462 -4.693028 2.6978161 -1.2435682 1.0564177 1.4946239 -1.0203798 3.707843 2.1114984 -1.5263771
KR 0.7485056 -2.4337454 4.7589874 -0.16144681 0.32585296 1.0858951 -1.5011988 4.167267 3.3271441 -0.2747177
GGP 6.040419 -1.5916773 -0.42291874 -0.087858185 -7.3190265 1.3613985 -3.7154062 7.5899005 -0.69944614 3.9610965
GPC 0.97974545 -3.034842 0.8552125 -4.2921205 0.809532 -0.26354995 1.7347605 0.10456705 0.47024316 -1.1755769
MCD 4.233733 -0.23482499 4.5399327 -3.2408793 -1.5523055 -3.3574944 5.5001283 -0.48226818 2.075975 -1.9222252
CMA -5.252233 -5.849932 -7.9399805 3.6412065 -1.0650426 4.2046127 3.5829244 -3.8924205 -5.9836497 -3.0719712
DIS 0.618831 -2.241115 0.96521825 -2.3676267 1.9371513 -1.2645625 2.9117596 0.9784441 0.6591754 -1.2605335
PNW 6.0754786 4.284901 2.3760521 0.60767645 -12.45514 2.9288578 -0.47537276 -2.022248 5.793593 -7.927996
AME -0.09676891 -1.2224483 -1.9310979 -4.953819 1.0434691 -2.1300642 4.7049184 -3.8643613 -2.620932 -0.73544407
VRSN 0.378162 0.68927246 0.85636103 -0.5181822 0.51615083 -3.8356483 2.487526 1.0892744 -0.4539566 -0.124615625
CMI -2.1184676 -1.061506 -3.1594205 -4.7471967 1.0170953 1.1817292 0.9507088 -4.354305 -1.1735862 -1.0459195
JCI 0.7825756 0.10358944 -0.38571617 -3.188486 -0.3198413 -0.114617266 1.7251841 -1.599053 0.010561177 0.037955318
ABC 0.42284775 0.3036514 4.6690717 2.8173804 0.4664981 -2.580129 2.1303976 2.9522884 1.4782107 1.3320311
PKG -0.9570345 0.51370615 -1.897437 -1.9216319 0.23746671 -0.27907595 0.6955541 -1.4706583 -0.89605856 1.2741159
DE 0.5751387 -2.0859993 -0.56016207 -5.839698 0.7203846 0.32941657 3.1430595 -3.68927 -0.47544244 -0.21410921
REG 8.024254 -0.80762035 0.46918082 -0.093524456 -9.200269 -0.39783424 -2.5265148 7.81308 -0.591607 4.848494
MTD -0.90024024 1.5426217 -0.50154704 -0.26101094 1.3402967 -3.2379951 3.2704206 -0.93157494 -0.5556668 -0.5924467
GPN -1.6102555 0.9135699 -0.22322907 0.64064837 1.5399988 -2.4658859 0.69732106 1.3729274 -0.3166944 -0.50415725
RSG 4.4242735 -1.3394407 2.6656566 -4.6185 -1.5283178 -1.8072813 5.8422837 -1.4580057 1.1105031 -2.2158134
NUE -2.2734828 -0.33265966 -2.500709 -2.5927012 0.23583491 4.3510466 -2.4109294 -1.8166968 -0.8946006 1.6312544
BXP 7.9577737 -2.8410695 -1.9656732 -1.4179202 -8.590903 -0.7927384 -0.20601715 6.1055703 -2.6468308 4.7563615
SLG 6.4991765 -1.8538125 -1.0846919 -1.1552764 -7.521001 1.1109236 -1.8243266 5.554334 -2.479395 4.7267923
AON 2.2787707 -2.395226 0.06051864 -3.254038 -0.7775201 -3.0172238 6.5591874 -2.0710025 -1.3494318 -2.0045846
DISCA -2.9846082 0.21700116 -0.76358193 -0.2415481 1.8293902 2.519188 -3.824011 2.0374234 0.63895005 -0.28212416
PFG -2.471945 -4.659747 -5.2771835 0.174772 0.35347417 0.6134228 5.2246346 -2.9946995 -5.267024 -1.8857089
CCI 3.8278224 0.39841104 2.7292945 -1.3901278 -2.2668583 -2.8950474 2.0575442 2.6451201 1.3770953 0.81784743
ESRX 0.53191274 0.47519454 2.5573866 1.1889464 -0.23564018 -1.682906 1.7642243 1.7052033 1.0965042 -0.22631544
IBM 2.029682 -0.44147772 1.8374616 -3.0756085 -0.539504 -1.9893847 4.422913 -1.608786 0.17858674 -1.4661007
LYB -4.345946 1.9601177 -2.7656615 -2.4229248 2.4403858 2.8325922 -1.909504 -3.53275 -0.69454056 1.6421545
PM 6.0602875 -2.780994 4.4590964 -2.0167308 -4.536537 -1.5534881 6.1852407 -0.0026100874 2.1401327 -1.7316685
ORLY 0.24088158 -2.3603737 2.3469377 -0.78806204 0.3163407 -0.54454845 0.017798966 2.558977 1.3080074 -0.85557324
TMO 0.2642088 0.98940605 1.5609087 0.2978694 1.5670354 -4.6747165 5.805322 -0.48705867 -0.4901577 -0.04338113
PNR -2.6271398 -0.34640145 -5.103072 -3.458466 1.0248963 1.4058256 0.71643007 -3.7524307 -2.129953 -0.46542773
PX 2.0483794 -1.1162217 1.0129973 -5.8603115 -0.29792404 0.2728489 5.1838074 -5.241122 0.47290874 -0.86136174
APD 0.44943103 -0.45461252 0.012725577 -4.8111157 1.2380046 -0.23354064 3.5883698 -3.4090178 -0.52595854 0.3633583
TWX 0.46194944 -1.2457693 0.6708869 -2.3710113 0.35389903 -0.74180275 3.0008988 -1.1190895 0.23521426 -0.8720293
BSX -1.2989794 3.0665698 2.002916 3.3249202 1.3444372 -3.7058997 1.8754034 1.654318 0.6802203 1.4992019
CAT -1.0225215 -0.45007488 -1.6499163 -5.742678 1.0575773 2.1614718 1.5733941 -5.0756526 -0.0012688467 -0.22545944
AAP -1.0854287 -2.7327847 1.3640505 -0.15406074 0.8584508 1.8270181 -2.5439668 3.6012897 1.1854178 0.022841454
LOW 0.08974113 -4.2692757 0.35060355 -1.629985 0.94930226 0.02808806 0.75490904 2.5910487 -0.116469584 -1.5960866
GOOGL -0.68048084 3.241385 1.1546514 1.4582342 0.7236692 -5.603815 3.1568017 0.47710437 -1.2414719 -0.11596605
REGN -3.893482 3.4561808 1.3512368 6.647008 1.015094 0.544743 -3.5665796 4.0955086 0.9951699 4.292369
EQR 8.896391 -0.5285845 0.34424528 -0.9236616 -8.373739 -1.5271771 -0.7275627 7.757197 -2.1629329 5.3142695
HD 3.4176736 -5.5297437 3.2051225 -3.1860523 0.9844978 -4.0353847 5.485201 3.1198997 0.09618825 -1.7642245
XEC -4.771964 4.139362 0.292658 -0.20076159 -1.0131205 8.89382 -6.0822453 -4.8810363 1.8275125 4.8104224
COG -2.5565867 1.1563028 1.6255722 -0.03456831 -0.9810201 9.184736 -5.826915 -0.9647545 1.0665187 5.3313336
HBAN -3.9128418 -6.2049236 -6.169228 4.2784624 -1.1509395 3.821569 2.484788 -0.8180342 -5.525829 -1.3585931
HRL 3.0226214 -1.7251261 5.2034483 -2.2863717 -1.0808356 0.49185345 1.2216994 1.8781071 3.2002943 -0.29536706
UPS 1.6295222 -2.0317814 2.8755934 -5.6478906 2.1198516 -2.1362426 5.69583 -2.581014 0.95956546 -1.9903514
SRE 6.449021 2.8637211 2.8278334 -1.8223749 -10.306931 1.8467004 0.09105376 -1.4834067 4.5374203 -5.3083353
NOC 1.5847777 0.23208697 2.4081569 -3.0339508 1.310948 -3.3238454 4.74235 -0.9432333 0.538925 -0.0011255911
STZ 1.2549496 0.49725035 2.4385962 0.33188143 -0.9883334 -1.9757243 2.5184917 0.824233 1.1069444 -1.3043365
MSFT -0.6545695 1.577094 -0.17830564 -0.7654594 1.0155879 -2.8178008 2.8408084 -0.83577883 -0.98288614 -0.28838494
IP -1.5864854 -0.74515873 -2.5599928 -3.3455267 1.6537843 0.44684955 -0.26933032 -0.7744721 -1.2203507 0.32102484
PRU -4.429432 -3.8924391 -6.454822 2.1570923 0.92679256 0.95356053 5.11959 -3.8987231 -5.430239 -2.419489
KEY -5.4412637 -6.725179 -7.527431 5.8738747 -1.1321832 4.8240557 4.519873 -3.2705379 -7.010197 -2.9299798
RRC -4.476945 2.8260083 0.830515 1.3853472 -0.8555563 10.490228 -9.101365 0.09857923 2.5322158 5.9371943
XL 3.16703 -1.5746504 1.0836611 -2.8010578 -1.7011702 -1.9425629 4.954508 -0.8132684 -0.04847501 -1.4573663
PKI -0.43902594 1.3673763 0.606255 0.1746767 1.2435482 -4.0175867 3.9968965 -0.47633648 -0.6265921 0.35439855
FRT 9.157994 -1.6387415 0.17855866 -0.90670425 -9.383267 0.5530537 -2.5312335 8.745661 -1.0201339 4.648086
BMY -0.9487543 0.92134964 2.757508 4.1909027 0.7757843 -2.213625 2.2437975 1.9363519 0.79409724 2.0722606
ORCL 0.6348181 0.26298752 0.73883396 -2.1227999 1.0129286 -3.2927306 2.6990013 0.50907636 -0.505526 -0.52001107
ICE -0.18766679 -1.1146241 -0.37201172 1.8191186 -0.78649026 -0.33729318 1.9573228 1.132183 -1.4081026 -0.0049587083
ES 8.285755 6.478734 3.5164785 0.37431926 -16.631979 4.1375446 -1.7421622 -2.8612316 7.3403826 -8.922926
DHR 2.1801367 -0.198337 1.79899 -2.531047 0.3605899 -3.7570727 5.541741 -0.7581077 -0.094534755 -0.49351057
O 12.960338 -0.82090986 1.7331719 -0.77676696 -13.923322 -0.48238227 -2.7746806 10.560421 -0.0234333 4.80005
IQV -0.86651236 2.3869474 2.3516834 3.595508 0.15314874 -2.0942352 -0.40453047 3.2636604 0.8543095 1.1891314
COTY -1.9013686 0.36270773 0.49576795 0.93695605 -0.14235736 3.4536257 -3.5902681 1.6491398 1.2171369 1.2316389
FOX -2.3889263 -0.34988055 0.07183967 0.31853312 2.0010374 0.42002288 -1.9822719 2.4971638 0.6409132 -1.1444045
FOXA -1.6385335 0.41160142 -0.16227414 -0.3430673 1.8323933 1.0489163 -1.196559 1.6544056 0.37611112 -0.9124514
NWS -2.8839834 -0.95970833 -1.5404537 -0.8061894 1.7536803 1.6784626 -2.2900424 0.91572994 0.36591408 0.04024714
NWSA -2.0159829 -1.6639785 -1.5479698 -0.80008835 0.74813133 0.80232084 -1.9141152 1.4054456 -0.70294404 1.0683293
ALLE -0.073589236 -0.19628882 -0.45745295 -1.0113211 0.7736996 -2.3350596 0.4961231 2.1371825 -0.5728006 -0.13367888
GOOG -0.8126215 4.101746 1.6528103 1.7770247 1.8393962 -5.2647433 3.1195273 0.9904525 -0.79700655 0.12144544
NAVI -3.8033724 -1.3227619 -3.0515962 1.9294915 0.32252157 3.146846 -3.0427535 1.4829056 -1.7547015 0.63421154
INFO -0.65828806 1.6268066 -0.02889902 0.46460438 0.18501906 -0.94645387 0.7282514 0.47559068 0.013065338 -0.03844489
SYF -2.3131657 -2.7769573 -2.8721216 2.3384511 -0.28926113 1.0230377 -0.08065511 1.8442398 -1.6764452 -1.1318386
CFG -5.322884 -4.79308 -6.366 4.911427 -0.579687 4.542629 1.0702189 -1.2761072 -5.180459 -0.68656033
QRVO -4.662659 4.4051547 -1.7891043 2.9051287 1.271832 0.48083085 -4.5964937 1.6592014 0.28578556 0.71578985
WRK -1.8128949 0.804259 -1.276521 -0.47315642 -0.13971591 2.0152295 -1.5585318 -0.51028526 0.08659422 0.325509
PYPL -2.4747705 3.9678032 0.46066025 1.4678551 1.433124 -2.2104256 -0.6530316 0.5621205 0.9902824 -0.62473434
KHC 2.136774 0.7460908 3.1531963 -1.4226953 -1.2136962 -0.8521784 1.7135206 0.6772724 1.8667946 0.18292396
HPE -3.782517 1.9425414 -1.5360079 1.0069824 1.3702726 1.7175673 -3.477914 0.8848566 -0.54610837 1.1610755
HPQ -2.7540317 2.1115718 -2.0991473 -0.33163258 0.45859507 1.2641631 -2.2661984 -0.6527149 -0.5962282 0.94007003
CSRA -1.5338353 0.74270993 -0.40015155 0.072985515 0.48933297 0.5509422 -1.8330257 1.4464577 0.26541412 0.46171054
WLTW 0.5613174 0.33790782 -0.19330782 -1.9419438 -0.752469 -1.1050602 2.1466196 -1.2803468 -0.29229012 -1.1491843
UA -5.948797 -0.78322506 0.2515601 3.5093002 2.0130363 5.6124988 -9.201742 5.5387855 2.4467466 1.4597242
FTV -0.22886488 0.7711777 0.24825501 -1.8403795 0.40514746 -1.0308579 1.9061407 -1.3300117 -0.059412617 -0.002132484
EVHC -2.2084093 0.46070376 0.63784254 2.0670154 0.23534311 1.7554768 -3.357107 2.9126136 1.0347741 1.3408599
HLT -0.5268381 0.612562 -0.29100296 -1.2079624 0.74235505 -1.1248637 0.599726 0.15863763 -0.09764869 -0.14696442
DXC -0.2629808 1.8415015 0.5497769 -0.5946392 -0.32495913 -1.280012 0.6158702 -0.08821987 0.6158019 -0.55398136
BHGE -1.440112 -0.5725116 0.09740904 -0.22717977 -0.380667 2.9700363 -1.6035302 0.18922754 0.34632504 1.1200219
BHF -1.8259641 -0.33904096 -0.36547896 0.4839531 0.25876126 1.576861 -0.74224293 0.20294069 0.06933475 0.1408656
DWDP -0.43252772 -0.03113079 -0.112904675 -0.9951063 0.5413743 -1.1101646 1.4628823 0.013534692 -0.36096072 0.08832408
APTV -1.047202 0.273926 -0.21727441 -1.319583 0.34318265 1.1766587 0.5233424 -1.2390115 -0.21408536 0.87906706
